svm_type c_svc
kernel_type polynomial
degree 3
gamma 0.0344828
coef0 0
nr_class 2
total_sv 10613
rho 1.00953
label 1 -1
nr_sv 5287 5326
SV
1 1:0.010101 3:1 5:1 8:1 11:0.0517241 12:0.4 13:0.4 14:0.1 15:0.1 18:0.149982 19:0.0691643 20:0.0867229 21:0.160138 22:0.0806481 23:0.260979 25:0.000409082 
1 1:0.20202 2:1 4:1 9:1 11:0.137931 18:0.146519 19:0.0662204 20:0.0863446 21:0.160138 22:0.0806481 23:0.260979 
1 1:0.0606061 2:1 6:1 9:1 11:0.362069 12:0.3 13:0.4 14:0.4 15:0.4 16:0.4 17:0.2 18:0.179297 19:0.100548 20:0.107403 21:0.197274 22:0.118981 23:0.291228 25:0.00184057 26:0.00223204 28:0.00351676 29:0.00283733 
1 1:0.494949 3:1 6:1 8:1 11:0.12069 12:0.2 13:0.2 14:0.2 15:0.2 16:0.2 17:0.2 18:0.166737 19:0.0886536 20:0.0967094 21:0.174208 22:0.0943585 23:0.272945 24:0.00173544 25:0.000771853 26:0.00111602 27:0.00161031 28:0.00468901 29:0.00378311 
1 1:0.191919 2:1 4:1 8:1 11:0.62069 15:0.1 16:0.4 17:0.4 18:0.281481 19:0.20739 20:0.165448 21:0.167838 22:0.088777 23:0.267064 26:0.00917593 27:0.000483092 29:0.00189155 
1 1:0.191919 2:1 4:1 8:1 11:0.551724 12:0.4 13:0.4 14:0.4 15:0.4 16:0.4 17:0.4 18:0.268793 19:0.199819 20:0.164561 21:0.295876 22:0.226531 23:0.375891 24:0.00721193 25:0.00326553 26:0.00613812 27:0.00885668 28:0.0117225 29:0.00945777 
1 1:0.020202 2:1 4:1 9:1 11:0.0517241 12:0.1 13:0.4 14:0.2 15:0.2 16:0.5 17:0.4 18:0.162623 19:0.0829404 20:0.0965738 21:0.18022 22:0.101166 23:0.277271 25:0.000778978 26:0.00334806 28:0.00234451 29:0.00189155 
1 1:0.040404 2:1 6:1 9:1 11:0.275862 12:0.4 13:0.4 14:0.4 15:0.5 16:0.4 17:0.4 18:0.187227 19:0.109853 20:0.113222 21:0.206155 22:0.12955 23:0.300281 24:0.00114475 25:0.00239571 26:0.00111602 27:0.00225443 28:0.00656462 
1 1:0.232323 2:1 4:1 9:1 11:0.448276 12:0.3 18:0.146519 19:0.0662204 20:0.0863446 21:0.160138 22:0.0806481 23:0.260979 
1 1:0.121212 2:1 6:1 8:1 11:0.603448 12:0.3 13:0.4 14:0.4 15:0.4 16:0.4 17:0.5 18:0.203698 19:0.128836 20:0.123285 21:0.224718 22:0.15283 23:0.315806 24:0.00343425 25:0.0017812 26:0.00334806 27:0.00885668 
1 1:0.0909091 3:1 5:1 8:1 11:0.293103 12:0.3 13:0.4 14:0.2 15:0.2 16:0.4 17:0.2 18:0.159335 19:0.0794698 20:0.0947576 21:0.175462 22:0.0963823 23:0.273619 25:0.000949973 26:0.00167403 28:0.00234451 29:0.00283733 
1 1:0.040404 3:1 4:1 9:1 11:0.0517241 12:0.3 13:0.4 14:0.4 15:0.4 16:0.4 17:0.4 18:0.178522 19:0.101513 20:0.107033 21:0.196368 22:0.119545 23:0.291745 24:0.00217503 25:0.000831226 26:0.00189724 27:0.00246699 28:0.00375121 
1 1:0.353535 3:1 4:1 8:1 11:0.327586 12:0.4 13:0.4 14:0.4 15:0.2 16:0.2 17:0.2 18:0.23958 19:0.175803 20:0.147924 21:0.268174 22:0.197499 23:0.353379 24:0.013737 26:0.00658453 27:0.00805153 28:0.0105503 29:0.0088903 
1 1:0.272727 2:1 4:1 9:1 11:0.206897 12:0.1 13:0.1 14:0.1 15:0.1 16:0.1 17:0.1 18:0.147314 19:0.0670727 20:0.086523 21:0.160984 22:0.0809703 24:0.00102799 25:0.000192963 26:0.00100219 27:0.000523349 29:0.65314 
1 1:0.0505051 2:1 5:1 9:1 11:0.0344828 12:0.2 13:0.2 14:0.2 15:0.2 16:0.2 17:0.2 18:0.190327 19:0.097806 20:0.105183 21:0.176412 22:0.0983059 23:0.275846 24:0.00225516 25:0.00118747 26:0.000689701 27:0.00130274 28:0.00468901 29:0.0011652 
1 1:0.10101 2:1 5:1 9:1 11:0.137931 12:0.3 13:0.4 14:0.4 15:0.2 16:0.2 17:0.2 18:0.198163 19:0.119934 20:0.114844 21:0.205963 22:0.128106 23:0.297842 24:0.00286188 26:0.00223204 27:0.00322061 28:0.00434671 29:0.00378311 
1 1:0.191919 3:1 5:1 8:1 11:0.275862 12:0.3 13:0.1 14:0.4 15:0.1 16:0.1 17:0.1 18:0.146361 19:0.0666997 20:0.0864484 21:0.166518 22:0.103661 23:0.273961 24:0.00114475 26:0.00770055 27:0.0386473 28:0.0398566 29:0.00472888 
1 1:0.171717 2:1 5:1 8:1 11:0.413793 12:0.1 13:0.2 14:0.2 15:0.2 16:0.2 17:0.2 18:0.171012 19:0.0931938 20:0.102624 21:0.188379 22:0.110811 23:0.284899 24:0.00169538 25:0.00118747 26:0.00122762 27:0.00193237 28:0.00351676 29:0.00283733 
1 1:0.494949 3:1 5:1 9:1 11:0.0344828 12:0.6 13:0.5 14:0.4 15:0.2 16:0.2 17:0.2 18:0.595798 19:0.549494 20:0.360831 21:0.636319 22:0.561173 23:0.583467 24:0.0114475 26:0.0156243 27:0.02657 28:0.0375121 29:0.0359395 
1 1:0.171717 2:1 5:1 8:1 11:0.258621 12:0.4 13:0.4 18:0.220441 19:0.0662204 20:0.0863446 21:0.160138 22:0.0806481 23:0.260979 
1 1:0.0505051 3:1 4:1 9:1 11:0.0344828 12:0.3 13:0.4 14:0.4 15:0.4 16:0.4 17:0.4 18:0.172475 19:0.0933408 20:0.103258 21:0.189905 22:0.112724 23:0.286312 25:0.00160842 26:0.00178563 27:0.00225443 28:0.00304786 29:0.00226986 
1 1:0.262626 3:1 5:1 8:1 11:0.189655 12:0.3 13:0.4 14:0.4 15:0.4 16:0.4 17:0.4 18:0.354248 19:0.287378 20:0.212232 21:0.365156 22:0.302452 23:0.431131 24:0.0114475 25:0.00474986 27:0.0257649 28:0.0187561 
1 1:0.373737 2:1 4:1 8:1 11:0.517241 12:0.3 18:0.146519 19:0.0662204 20:0.0863446 21:0.160138 22:0.0806481 23:0.260979 
1 1:0.222222 2:1 4:1 8:1 11:0.655172 12:0.1 13:0.2 14:0.2 15:0.2 16:0.2 17:0.2 18:0.330981 19:0.262035 20:0.198247 21:0.349789 22:0.277969 23:0.408274 24:0.00862685 25:0.00432059 26:0.00792375 27:0.0114654 28:0.0160458 29:0.0131368 
1 1:0.383838 3:1 6:1 9:1 11:0.241379 12:0.2 13:0.2 14:0.2 15:0.2 16:0.2 17:0.2 18:0.460843 19:0.411027 20:0.291237 21:0.397702 22:0.335973 23:0.463103 24:0.0157999 25:0.00981144 26:0.00992478 27:0.0148615 28:0.0234451 29:0.0178468 
1 1:0.0909091 2:1 6:1 8:1 11:0.534483 12:0.2 13:0.2 14:0.4 15:0.4 16:0.4 17:0.2 18:0.15064 19:0.0719791 20:0.0898684 21:0.166525 22:0.0867403 23:0.266848 24:0.00171713 25:0.000593733 26:0.00111602 28:0.00468901 29:0.00378311 
1 1:0.282828 2:1 4:1 8:1 11:0.551724 12:0.4 13:0.2 14:0.2 15:0.2 16:0.2 17:0.2 18:0.393942 19:0.33387 20:0.241453 21:0.428284 22:0.334382 23:0.444082 24:0.0148818 25:0.00605608 26:0.011456 27:0.0141755 28:0.0194594 29:0.0161652 
1 1:0.020202 2:1 5:1 9:1 11:0.12069 12:0.3 13:0.1 14:0.1 18:0.146519 19:0.0669607 20:0.0863446 21:0.160138 22:0.0806481 23:0.260979 24:0.000892906 
1 1:0.272727 2:1 5:1 8:1 11:0.310345 18:0.148362 19:0.0695961 20:0.0894319 21:0.165224 22:0.0844815 23:0.263688 24:0.00411767 25:0.00336765 26:0.00605665 27:0.00625604 28:0.00830659 29:0.00665638 
1 1:0.0808081 2:1 6:1 9:1 11:0.362069 12:0.4 13:0.4 14:0.4 15:0.4 16:0.4 17:0.4 18:0.203826 19:0.126165 20:0.104347 21:0.189943 22:0.109641 23:0.282731 25:0.00172183 27:0.00402576 29:0.00245902 
1 1:0.040404 2:1 4:1 9:1 11:0.0862069 12:0.1 13:0.2 14:0.2 15:0.2 16:0.2 17:0.2 18:0.160189 19:0.0817769 20:0.0962801 21:0.177494 22:0.0991101 23:0.275626 24:0.00171713 25:0.00118747 26:0.00167403 27:0.00193237 28:0.00211006 29:0.00189155 
1 2:1 5:1 8:1 11:0.413793 12:0.2 13:0.2 14:0.2 15:0.4 16:0.2 17:0.2 18:0.152836 19:0.0742075 20:0.0917335 21:0.169094 22:0.0903198 23:0.268811 24:0.00160265 25:0.00100935 27:0.000644122 28:0.0014067 29:0.000378311 
1 1:0.040404 3:1 5:1 9:1 11:0.534483 12:0.3 13:0.4 14:0.2 15:0.2 16:0.2 17:0.4 18:0.184873 19:0.10737 20:0.0992015 21:0.180832 22:0.101648 23:0.275358 24:0.00148818 25:0.000831226 26:0.00102674 27:0.00273752 29:0.0017024 
1 1:0.020202 3:1 6:1 9:1 11:0.551724 12:0.1 13:0.1 14:0.1 15:0.1 16:0.1 17:0.1 18:0.147933 19:0.0685807 20:0.0863446 21:0.164669 22:0.0834205 23:0.263472 24:0.002847 26:0.00536806 27:0.00450242 28:0.00760792 29:0.0138178 
1 1:0.171717 2:1 4:1 9:1 11:0.103448 13:0.1 14:0.4 15:0.4 18:0.1566 19:0.0801598 20:0.0940532 21:0.172798 22:0.0939747 23:0.27103 24:0.00400663 
1 1:0.020202 2:1 4:1 8:1 11:0.103448 12:0.1 13:0.2 14:0.2 15:0.2 16:0.2 18:0.157932 19:0.0790171 20:0.0899985 21:0.166372 22:0.0806481 23:0.260979 24:0.0023021 25:0.00131274 26:0.00234476 27:0.000238325 
1 1:0.373737 2:1 4:1 9:1 11:0.37931 12:0.3 13:0.4 14:0.4 18:0.153776 19:0.0737007 20:0.0863435 21:0.160136 22:0.0806461 23:0.260977 24:4.46453e-05 
1 1:0.292929 2:1 4:1 8:1 11:0.362069 12:0.1 13:0.2 14:0.2 15:0.1 16:0.2 17:0.2 18:0.157114 19:0.124903 20:0.10015 21:0.195619 22:0.099937 23:0.269042 24:0.0240157 25:0.00296866 26:0.0420472 27:0.0141836 28:0.00468901 29:0.00512422 
1 1:0.121212 2:1 6:1 9:1 11:0.37931 12:0.3 13:0.1 14:0.1 16:0.1 17:0.1 18:0.14742 19:0.0722724 20:0.0863435 21:0.161019 22:0.085591 23:0.26191 24:0.00736419 25:1.18747e-06 26:0.00104571 27:0.00803543 28:0.00284858 29:0.0180568 
1 1:0.0505051 2:1 5:1 9:1 11:0.103448 12:0.3 13:0.4 14:0.2 15:0.2 16:0.4 17:0.4 18:0.184884 19:0.106441 20:0.111965 21:0.207121 22:0.130954 23:0.299221 25:0.00296866 26:0.00446409 27:0.00289855 29:0.00378311 
1 1:0.0505051 3:1 6:1 8:1 11:0.224138 12:0.2 13:0.2 14:0.2 15:0.4 16:0.2 17:0.2 18:0.155304 19:0.0769075 20:0.0934014 21:0.171773 22:0.093244 23:0.271229 24:0.00171713 25:0.0012409 27:0.00112721 28:0.00234451 29:0.00264817 
1 1:0.20202 3:1 6:1 9:1 11:0.431034 12:0.3 13:0.4 14:0.2 15:0.2 16:0.1 17:0.1 18:0.151666 19:0.0715151 20:0.0973688 21:0.176443 22:0.0829386 23:0.261164 24:1.48818e-05 25:0.0102769 27:0.00371981 28:0.000565026 29:0.00756621 
1 1:0.191919 3:1 5:1 9:1 11:0.327586 12:0.4 13:0.2 14:0.2 15:0.2 16:0.2 17:0.2 18:0.302703 19:0.233531 20:0.175743 21:0.311031 22:0.241247 23:0.378065 24:0.00915801 25:0.00433425 26:0.00669613 27:0.00966184 28:0.014067 29:0.0113493 
1 1:0.222222 3:1 5:1 8:1 11:0.224138 12:0.2 13:0.2 14:0.2 15:0.2 16:0.2 17:0.2 18:0.353872 19:0.288494 20:0.172734 21:0.306461 22:0.232781 23:0.376646 24:0.0102032 25:0.00323525 26:0.00595844 27:0.00864734 28:0.0103979 29:0.00838336 
1 1:0.232323 2:1 5:1 8:1 11:0.189655 12:0.4 13:0.4 14:0.4 15:0.2 16:0.2 17:0.2 18:0.259269 19:0.195233 20:0.15917 21:0.287607 22:0.218003 23:0.36981 24:0.0119054 26:0.0050221 27:0.00805153 28:0.0117225 29:0.00945777 
1 1:0.131313 3:1 4:1 9:1 11:0.12069 12:0.2 13:0.2 14:0.4 15:0.2 16:0.2 17:0.2 18:0.154753 19:0.0791405 20:0.0935387 21:0.173398 22:0.095709 23:0.273486 24:0.00549481 26:0.00167403 27:0.00241546 28:0.00351676 29:0.00283733 
1 1:0.171717 2:1 5:1 9:1 11:0.0689655 12:0.4 13:0.4 14:0.4 15:0.2 16:0.2 17:0.2 18:0.155387 19:0.0784126 20:0.0931258 21:0.171771 22:0.0931498 23:0.270886 24:0.00343425 26:0.000558011 27:0.000732689 28:0.00115115 29:0.000945777 
1 1:0.20202 3:1 5:1 8:1 11:0.137931 12:0.2 13:0.2 14:0.2 15:0.2 16:0.2 17:0.2 18:0.332174 19:0.183581 20:0.11454 21:0.2011 22:0.125054 23:0.296087 24:0.0058245 25:0.00118747 26:0.00178563 27:0.00322061 28:0.00422011 29:0.00341804 
1 1:0.010101 2:1 6:1 9:1 11:0.0172414 12:0.2 13:0.2 14:0.2 18:0.163884 19:0.0823274 20:0.0863446 21:0.160138 22:0.0806481 23:0.260979 24:0.00114475 
1 1:0.040404 3:1 5:1 9:1 11:0.0172414 12:0.2 13:0.2 14:0.2 15:0.2 16:0.2 17:0.2 18:0.191501 19:0.114403 20:0.113915 21:0.187819 22:0.109926 23:0.284129 24:0.00251845 25:0.000900693 26:0.00111602 27:0.00241546 28:0.00470074 29:0.00246848 
1 1:0.020202 2:1 5:1 9:1 11:0.568966 12:0.2 13:0.2 14:0.2 15:0.2 16:0.2 17:0.2 18:0.169772 19:0.089725 20:0.101461 21:0.185006 22:0.106052 23:0.261278 24:0.00194608 25:0.00201869 26:0.0028213 28:0.000914358 29:0.00147541 
1 1:0.010101 2:1 4:1 9:1 11:0.0862069 12:0.1 13:0.1 14:0.1 15:0.1 16:0.1 17:0.1 18:0.146887 19:0.0666152 20:0.086573 21:0.16053 22:0.0810606 23:0.261733 24:0.000476217 25:0.000246993 26:0.000464265 27:0.000669887 28:0.00230231 
1 1:0.151515 2:1 5:1 8:1 11:0.172414 12:0.5 13:0.4 14:0.2 15:0.2 16:0.2 17:0.2 18:0.169787 19:0.0919145 20:0.10189 21:0.187777 22:0.112071 23:0.287102 24:0.00171713 25:0.00118747 26:0.00167403 27:0.00483092 28:0.00703352 29:0.00283733 
1 1:0.131313 2:1 5:1 8:1 11:0.465517 12:0.1 13:0.1 14:0.4 15:0.2 16:0.2 18:0.147935 19:0.070977 20:0.0889465 21:0.164602 22:0.0806481 23:0.260979 24:0.00573749 29:0.0052396 
1 1:0.0505051 2:1 5:1 8:1 11:0.275862 12:0.5 13:0.6 14:0.5 15:0.4 16:0.4 17:0.4 18:0.173403 19:0.094678 20:0.102382 21:0.188142 22:0.110896 23:0.285748 24:0.000418979 26:0.00145083 27:0.00225443 28:0.00562682 29:0.00435057 
1 1:0.292929 3:1 4:1 8:1 11:0.413793 12:0.1 13:0.1 14:0.1 15:0.2 16:0.2 17:0.1 18:0.152366 19:0.0757193 20:0.0986739 21:0.180914 22:0.0945499 23:0.261924 24:0.011467 25:0.0133329 28:0.00288374 
1 1:0.0909091 2:1 4:1 9:1 11:0.172414 12:0.4 13:0.4 14:0.4 15:0.4 16:0.4 17:0.4 18:0.176386 19:0.0974701 20:0.105875 21:0.192825 22:0.117279 23:0.288795 25:0.00189995 27:0.00450886 29:0.00285814 
1 1:0.040404 3:1 5:1 8:1 11:0.275862 12:0.4 13:0.4 14:0.5 15:0.5 16:0.5 17:0.5 18:0.147448 19:0.0672169 20:0.0869211 21:0.161127 22:0.0816892 23:0.261786 
1 1:0.010101 3:1 5:1 10:1 11:0.396552 12:0.4 13:0.4 14:0.9 15:0.9 16:0.9 17:0.8 18:0.148643 19:0.0684981 20:0.0876623 21:0.162399 22:0.0830278 23:0.262362 
1 1:0.010101 2:1 5:1 9:1 11:0.0172414 12:0.3 13:0.4 14:0.2 15:0.2 16:0.2 17:0.2 18:0.153795 19:0.0737633 20:0.0912629 21:0.169045 22:0.0907125 23:0.269222 25:0.000771853 26:0.000892817 27:0.00161031 28:0.00211006 29:0.00402901 
1 1:0.232323 3:1 5:1 8:1 11:0.396552 12:0.1 13:0.1 14:0.1 15:0.1 16:0.1 17:0.1 18:0.149451 19:0.0732983 20:0.0876233 21:0.164157 22:0.0830318 23:0.264239 24:0.00853756 25:0.00138637 26:0.00476206 27:0.00387118 28:0.00994774 29:0.00558387 
1 1:0.161616 2:1 5:1 8:1 11:0.465517 12:0.2 13:0.2 14:0.2 15:0.2 16:0.2 17:0.2 18:0.229185 19:0.157597 20:0.139779 21:0.253789 22:0.181381 23:0.346802 24:0.00500371 25:0.00209766 26:0.00414714 27:0.00633494 28:0.0282044 
1 1:0.333333 2:1 4:1 8:1 11:0.534483 18:0.173802 19:0.0981572 20:0.105667 21:0.188397 22:0.0913233 23:0.28702 24:0.0385438 25:0.0209065 26:0.0334806 27:0.0173366 28:0.0794905 29:0.0571249 
1 1:0.313131 2:1 4:1 8:1 11:0.241379 12:0.3 18:0.146777 19:0.0686822 20:0.0878221 21:0.160412 22:0.0809366 23:0.261202 24:0.00296949 25:0.00159774 26:0.000324762 27:0.000468599 28:0.000682251 29:0.00590921 
1 1:0.010101 2:1 6:1 8:1 11:0.724138 12:0.4 13:0.4 14:0.4 15:0.4 16:0.4 17:0.2 18:0.160763 19:0.0823074 20:0.0957277 21:0.176272 22:0.097232 23:0.274245 24:0.00160265 25:0.000415613 26:0.000669613 28:0.00187561 29:0.00146028 
1 1:0.040404 2:1 5:1 8:1 11:0.465517 12:0.2 13:0.2 14:0.2 15:0.2 16:0.2 17:0.2 18:0.182738 19:0.105028 20:0.109191 21:0.177871 22:0.0985151 23:0.274907 24:0.00215213 25:0.000979659 26:0.0111602 27:0.00161031 28:0.00164115 29:0.00113493 
1 1:0.040404 2:1 5:1 9:1 11:0.482759 12:0.2 13:0.2 14:0.2 15:0.2 16:0.2 17:0.2 18:0.226363 19:0.152247 20:0.137026 21:0.248571 22:0.179228 23:0.338897 24:0.00326483 25:0.00165295 26:0.002905 27:0.0161031 28:0.00741802 29:0.00542498 
1 1:0.212121 3:1 5:1 9:1 11:0.172414 12:0.1 13:0.1 15:0.1 16:0.1 18:0.180805 19:0.0662204 20:0.0863446 21:0.264415 22:0.0806481 23:0.260979 26:0.123542 
1 1:0.010101 2:1 6:1 9:1 11:0.189655 12:0.2 13:0.2 14:0.4 15:0.4 16:0.4 17:0.2 18:0.149773 19:0.0719165 20:0.089506 21:0.172025 22:0.0928186 23:0.272544 24:0.0027474 26:0.00781215 28:0.00703352 29:0.00756621 
1 1:0.0909091 3:1 4:1 9:1 11:0.155172 12:0.2 13:0.2 14:0.2 15:0.2 16:0.4 17:0.2 18:0.171635 19:0.0974464 20:0.10956 21:0.208687 22:0.130805 23:0.301392 24:0.00572376 25:0.00593733 26:0.0111602 28:0.00667247 29:0.00366205 
1 1:0.141414 3:1 4:1 8:1 11:0.172414 18:0.149153 19:0.0675567 20:0.0863446 21:0.160138 22:0.0806481 23:0.260979 24:0.00161181 29:0.00832284 
1 1:0.131313 2:1 4:1 8:1 11:0.568966 12:0.2 13:0.2 14:0.2 15:0.2 16:0.2 17:0.2 18:0.269877 19:0.199365 20:0.159916 21:0.23021 22:0.172423 23:0.327831 24:0.00634765 25:0.00249368 26:0.00346525 27:0.139158 28:0.00922798 29:0.0915323 
1 1:0.020202 3:1 4:1 9:1 11:0.103448 12:0.2 13:0.2 14:0.2 15:0.2 16:0.2 17:0.2 18:0.167267 19:0.0895314 20:0.100428 21:0.184839 22:0.107222 23:0.282153 24:0.00171713 25:0.000890599 26:0.00111602 27:0.00161031 28:0.00281341 29:0.00807882 
1 1:0.0707071 3:1 5:1 8:1 11:0.275862 12:0.4 13:0.4 14:0.4 15:0.4 16:0.4 17:0.4 18:0.16 19:0.0822524 20:0.0961362 21:0.176387 22:0.0989623 23:0.274829 24:0.00251845 25:0.000890599 27:0.00241546 29:0.00302649 
1 1:0.212121 2:1 5:1 8:1 11:0.672414 12:0.1 13:0.1 14:0.1 15:0.1 16:0.1 17:0.1 18:0.148284 19:0.067737 20:0.0901572 21:0.166883 22:0.0821692 23:0.269623 24:0.00183847 25:0.00414307 26:0.00803089 27:0.00248148 28:0.0265023 29:0.00091362 
1 1:0.151515 3:1 5:1 8:1 11:0.241379 12:0.1 13:0.1 14:0.1 15:0.1 16:0.1 17:0.1 18:0.147206 19:0.0673327 20:0.0865532 21:0.160869 22:0.0818102 23:0.261271 24:0.00134165 25:0.000225619 26:0.000866033 27:0.00188728 28:0.000890912 29:0.00146785 
1 1:0.111111 2:1 4:1 8:1 11:0.568966 12:0.1 13:0.1 14:0.1 15:0.1 16:0.2 17:0.1 18:0.146864 19:0.0665906 20:0.0865587 21:0.161907 22:0.0810348 23:0.261693 24:0.000446453 25:0.000231556 26:0.00209589 28:0.00218039 
1 1:0.010101 2:1 6:1 8:1 11:0.293103 12:0.2 13:0.2 14:0.1 15:0.1 16:0.1 17:0.1 18:0.164044 19:0.0851061 20:0.0865587 21:0.160505 22:0.0806481 23:0.261578 24:0.00114475 25:0.000231556 26:0.000435248 28:0.00182872 
1 1:0.040404 3:1 5:1 9:1 11:0.275862 12:0.3 13:0.4 14:0.4 15:0.4 16:0.4 17:0.4 18:0.158915 19:0.0790257 20:0.0958205 21:0.175854 22:0.0985131 23:0.274489 25:0.00237493 27:0.00257649 29:0.00567466 
1 1:0.171717 3:1 6:1 8:1 11:0.310345 12:0.4 13:0.2 14:0.2 18:0.299151 19:0.134598 20:0.0863446 21:0.160138 22:0.0806481 23:0.260979 24:0.00394939 
1 1:0.353535 2:1 4:1 8:1 11:0.293103 12:0.1 13:0.1 14:0.1 15:0.1 16:0.1 17:0.1 18:0.147209 19:0.0662204 20:0.0865587 21:0.160505 22:0.0810348 23:0.261278 25:0.000231556 26:0.000435248 27:0.000628019 28:0.000914358 29:0.000737706 
1 1:0.0909091 3:1 4:1 8:1 11:0.517241 12:0.3 15:0.1 16:0.4 17:0.4 18:0.146519 19:0.0662204 20:0.0863446 21:0.16042 22:0.0807968 23:0.261578 26:0.000334806 28:0.00147704 
1 3:1 4:1 9:1 11:0.103448 12:0.1 13:0.1 18:0.146961 19:0.0662204 20:0.0863446 21:0.160138 22:0.0806481 23:0.260979 
1 1:0.020202 3:1 5:1 9:1 11:0.275862 12:0.5 13:0.4 14:0.4 15:0.2 16:0.2 17:0.2 18:0.172762 19:0.094995 20:0.102262 21:0.187518 22:0.109741 23:0.284637 24:0.0020182 26:0.00131467 27:0.0019694 28:0.00570887 29:0.00226986 
1 1:0.141414 3:1 4:1 8:1 11:0.293103 12:0.3 18:0.146519 19:0.0662204 20:0.0863446 21:0.160138 22:0.0806481 23:0.260979 
1 1:0.040404 3:1 5:1 9:1 11:0.482759 12:0.4 13:0.2 14:0.1 15:0.1 16:0.1 17:0.2 18:0.180983 19:0.102093 20:0.0863462 21:0.177169 22:0.092772 23:0.271196 24:0.0022895 25:0.000593733 26:0.0212044 27:0.0201288 28:0.00468901 29:0.00378311 
1 2:1 5:1 9:1 11:0.0172414 12:0.2 13:0.2 14:0.2 15:0.2 16:0.2 17:0.2 18:0.154131 19:0.0745036 20:0.0916818 21:0.169189 22:0.0900709 23:0.268488 24:0.00132562 25:0.000683387 26:0.000378331 27:0.000553945 28:0.000996415 29:0.000368853 
1 1:0.383838 3:1 6:1 8:1 11:0.293103 16:0.1 17:0.1 18:0.146732 19:0.0662204 20:0.0863446 21:0.160138 22:0.0813809 23:0.260979 27:0.00119002 
1 1:0.010101 3:1 5:1 8:1 11:0.362069 12:0.4 13:0.2 14:0.2 15:0.2 16:0.2 17:0.2 18:0.157515 19:0.0786935 20:0.0941146 21:0.173735 22:0.0953253 23:0.272703 24:0.00140232 25:0.000732666 26:0.000576983 27:0.000966184 28:0.00164115 29:0.001343 
1 1:0.10101 2:1 5:1 9:1 11:0.0862069 12:0.4 13:0.4 14:0.4 15:0.4 16:0.4 17:0.4 18:0.197942 19:0.119954 20:0.119689 21:0.218483 22:0.143213 23:0.31054 25:0.00338428 26:0.00312486 27:0.0037037 28:0.00609572 29:0.00435057 
1 1:0.121212 2:1 6:1 8:1 11:0.431034 12:0.3 13:0.4 14:0.2 15:0.2 16:0.2 17:0.2 18:0.170041 19:0.0908534 20:0.10015 21:0.182025 22:0.0938131 23:0.271657 24:0.000114475 25:0.00118747 26:0.00111602 27:0.00112721 28:0.00234451 29:0.00378311 
1 1:0.010101 2:1 4:1 9:1 11:0.0344828 12:0.1 13:0.4 14:0.4 15:0.4 16:0.4 17:0.4 18:0.160131 19:0.0815397 20:0.094902 21:0.176455 22:0.0974135 23:0.274476 24:0.00148818 26:0.00223204 28:0.00290719 
1 1:0.131313 2:1 4:1 8:1 11:0.62069 12:0.4 13:0.4 14:0.4 15:0.4 16:0.4 17:0.5 18:0.242671 19:0.166347 20:0.148484 21:0.267168 22:0.196062 23:0.349989 25:0.00651325 26:0.00424646 27:0.00764412 28:0.00452959 29:0.0157699 
1 1:0.10101 3:1 4:1 9:1 11:0.137931 12:0.4 13:0.4 14:0.4 15:0.4 16:0.4 17:0.4 18:0.231194 19:0.165964 20:0.144365 21:0.260465 22:0.183365 23:0.344955 24:0.0125923 25:0.00225619 26:0.00446409 28:0.0206317 
1 1:0.131313 3:1 4:1 9:1 11:0.155172 12:0.4 13:0.1 14:0.1 15:0.1 16:0.1 17:0.1 18:0.147466 19:0.0705793 20:0.0889278 21:0.161749 22:0.0806481 23:0.265663 24:0.00525784 25:0.00279351 26:0.0019084 28:0.0142921 
1 1:0.040404 3:1 5:1 8:1 11:0.189655 12:0.1 13:0.1 14:0.1 18:0.147244 19:0.0668838 20:0.0863446 21:0.160138 22:0.0806481 23:0.260979 24:0.000800181 
1 1:0.0505051 2:1 4:1 9:1 11:0.172414 12:0.3 13:0.1 14:0.2 15:0.2 16:0.2 17:0.2 18:0.146519 19:0.0671809 20:0.0988408 21:0.176182 22:0.0873987 23:0.267696 24:0.00115849 25:0.0131013 26:0.00561582 27:0.00252013 28:0.0199283 29:0.00984554 
1 1:0.040404 3:1 5:1 9:1 11:0.0862069 12:0.2 13:0.2 14:0.2 15:0.2 18:0.176099 19:0.0988528 20:0.105998 21:0.159922 22:0.080421 23:0.260803 24:0.00206055 25:0.00124684 
1 1:0.121212 2:1 6:1 9:1 11:0.482759 12:0.4 13:0.2 14:0.2 15:0.2 16:0.2 17:0.2 18:0.199854 19:0.124907 20:0.120588 21:0.219887 22:0.107201 23:0.282128 24:0.00290309 25:0.00110256 26:0.00187603 27:0.00156361 28:0.00278058 29:0.00321186 
1 1:0.030303 2:1 5:1 8:1 11:0.293103 12:0.4 13:0.4 14:0.4 15:0.4 16:0.4 17:0.4 18:0.175855 19:0.0981297 20:0.105436 21:0.192087 22:0.117043 23:0.292028 24:0.00148818 25:0.00118747 27:0.00563607 28:0.0104823 
1 1:0.171717 2:1 5:1 9:1 11:0.137931 12:0.3 13:0.4 14:0.4 16:0.1 17:0.4 18:0.151178 19:0.0709675 20:0.0863446 21:0.160138 22:0.0820145 23:0.26173 27:0.00274396 29:0.00508828 
1 1:0.040404 3:1 6:1 9:1 11:0.37931 12:0.4 13:0.4 14:0.9 15:0.9 16:0.9 17:0.9 18:0.148643 19:0.0684981 20:0.0876623 21:0.162399 22:0.0830278 23:0.262823 
1 1:0.151515 2:1 4:1 8:1 11:0.258621 12:0.1 13:0.1 14:0.1 15:0.1 16:0.1 17:0.1 18:0.147241 19:0.0665203 20:0.0865181 21:0.160435 22:0.0809614 23:0.261222 24:0.000361741 25:0.00018762 26:0.000352663 27:0.000508857 28:0.000740864 29:0.000597731 
1 1:0.141414 3:1 4:1 8:1 11:0.482759 12:0.1 13:0.1 15:0.1 16:0.1 17:0.1 18:0.147271 19:0.0662204 20:0.0863446 21:0.189439 22:0.0806481 23:0.262135 26:0.034715 28:0.00352848 29:0.00188588 
1 1:0.191919 2:1 5:1 9:1 11:0.0689655 12:0.3 15:0.1 16:0.2 17:0.2 18:0.146519 19:0.0662204 20:0.0863446 21:0.161567 22:0.128907 23:0.299122 26:0.001693 27:0.0772947 28:0.0041615 29:0.00376797 
1 1:0.020202 3:1 6:1 8:1 11:0.396552 12:0.2 13:0.2 14:0.2 15:0.2 16:0.2 17:0.2 18:0.170969 19:0.0939122 20:0.102896 21:0.184979 22:0.107983 23:0.284121 24:0.0022895 25:0.000890599 26:0.00104125 27:0.00322061 28:0.00703352 29:0.00189155 
1 1:0.0909091 3:1 6:1 8:1 11:0.137931 12:0.6 13:0.5 14:0.4 15:0.2 16:0.2 17:0.1 18:0.301764 19:0.212363 20:0.158891 21:0.26793 22:0.196429 23:0.334723 27:0.00376006 28:0.239315 
1 1:0.131313 3:1 4:1 9:1 11:0.137931 12:0.4 13:0.4 14:0.4 15:0.4 16:0.4 17:0.4 18:0.233154 19:0.161268 20:0.141673 21:0.255808 22:0.182992 23:0.32867 24:0.00538033 25:0.00189995 26:0.00390608 27:0.00514171 29:0.00435814 
1 1:0.010101 2:1 5:1 9:1 11:0.0344828 12:0.3 13:0.4 14:0.2 15:0.2 16:0.2 17:0.2 18:0.163689 19:0.0838164 20:0.0969159 21:0.178465 22:0.0998081 23:0.275784 25:0.000770665 26:0.00111602 27:0.00111433 28:0.00179589 29:0.00188777 
1 1:0.323232 2:1 4:1 8:1 11:0.224138 12:0.2 13:0.2 14:0.2 15:0.2 16:0.2 17:0.2 18:0.268641 19:0.200274 20:0.158031 21:0.280954 22:0.196649 23:0.342408 24:0.00803043 25:0.00415613 26:0.011168 27:0.010467 28:0.0154737 29:0.017024 
1 1:0.020202 3:1 4:1 9:1 11:0.0517241 12:0.4 13:0.4 14:0.4 15:0.2 16:0.2 17:0.2 18:0.174129 19:0.0973496 20:0.102866 21:0.188537 22:0.110615 23:0.283226 24:0.00276457 26:0.00116624 27:0.00147343 28:0.00249221 29:0.000773645 
1 1:0.020202 2:1 5:1 9:1 11:0.0517241 12:0.1 13:0.1 14:0.1 15:0.2 16:0.2 18:0.146864 19:0.0665906 20:0.0867729 21:0.160873 22:0.0806481 23:0.260979 24:0.000446453 25:0.000463112 
1 1:0.030303 2:1 4:1 9:1 11:0.0517241 12:0.2 13:0.2 14:0.2 15:0.2 16:0.2 17:0.2 18:0.173151 19:0.0954686 20:0.0939302 21:0.169832 22:0.0880263 23:0.266692 24:0.00148818 25:0.00119518 26:0.000356011 27:0.000668277 28:0.000623639 29:0.00052396 
1 1:0.30303 3:1 4:1 9:1 11:0.189655 18:0.164339 19:0.0740661 20:0.122578 21:0.168185 22:0.0823288 23:0.261555 24:0.00946366 25:0.0391911 26:0.00953417 27:0.00272947 28:0.00175838 29:0.0139029 
1 1:0.121212 3:1 6:1 9:1 11:0.258621 12:0.3 18:0.146519 19:0.0662204 20:0.0863446 21:0.160138 22:0.0806481 23:0.260979 
1 1:0.0707071 3:1 6:1 8:1 11:0.241379 12:0.4 13:0.4 14:0.4 15:0.4 16:0.4 17:0.2 18:0.208463 19:0.133971 20:0.126857 21:0.230281 22:0.152868 23:0.317992 24:0.00354873 25:0.00249605 26:0.0031137 28:0.00713433 29:0.00496533 
1 1:0.161616 2:1 4:1 8:1 11:0.327586 12:0.1 13:0.1 14:0.1 15:0.1 16:0.1 17:0.2 18:0.148289 19:0.0683178 20:0.0879917 21:0.162022 22:0.0856059 23:0.263284 24:0.0025299 25:0.0017812 26:0.00223204 27:0.00805153 29:0.00756621 
1 1:0.252525 3:1 4:1 8:1 11:0.241379 12:0.4 13:0.4 15:0.1 16:0.2 17:0.2 18:0.147416 19:0.0662204 20:0.0863446 21:0.166633 22:0.0843347 23:0.260979 26:0.00769497 
1 1:0.191919 2:1 4:1 9:1 11:0.137931 12:0.1 13:0.1 14:0.1 15:0.2 16:0.1 17:0.1 18:0.150775 19:0.0662204 20:0.0867432 21:0.160822 22:0.0811389 23:0.262056 25:0.00043105 27:0.000797101 28:0.00366212 29:0.00268601 
1 1:0.171717 3:1 5:1 8:1 11:0.224138 12:0.1 13:0.1 16:0.1 17:0.1 18:0.153598 19:0.0662204 20:0.0863446 21:0.160138 22:0.081243 23:0.260979 27:0.000966184 
1 1:0.040404 3:1 5:1 8:1 11:0.5 12:0.2 13:0.2 14:0.2 15:0.1 16:0.1 17:0.1 18:0.189099 19:0.112076 20:0.0982863 21:0.16427 22:0.085003 23:0.268274 24:0.00177894 25:0.000610357 26:0.00489599 27:0.00707246 28:0.0222564 29:0.000930644 
1 1:0.040404 2:1 4:1 9:1 11:0.0344828 12:0.3 18:0.146519 19:0.0662204 20:0.0863446 21:0.160138 22:0.0806481 23:0.260979 
1 1:0.030303 3:1 5:1 8:1 11:0.137931 12:0.1 13:0.2 14:0.2 17:0.1 18:0.154307 19:0.075278 20:0.0863446 21:0.160138 22:0.0806481 23:0.267067 24:0.00114475 28:0.0185732 29:0.000298865 
1 1:0.040404 2:1 4:1 8:1 11:0.103448 12:0.4 13:0.4 14:0.4 15:0.4 16:0.2 17:0.2 18:0.184864 19:0.110168 20:0.112287 21:0.20365 22:0.127249 23:0.298036 24:0.00457901 25:0.00118747 27:0.00273752 28:0.00468901 29:0.00680959 
1 1:0.0606061 3:1 4:1 9:1 11:0.0689655 12:0.4 13:0.2 14:0.2 15:0.2 16:0.2 17:0.2 18:0.15159 19:0.0734568 20:0.0915517 21:0.170798 22:0.0936624 23:0.272308 24:0.0022895 25:0.00118747 26:0.00223204 27:0.00322061 28:0.00468901 29:0.00378311 
1 1:0.191919 2:1 4:1 8:1 11:0.37931 12:0.3 13:0.4 14:0.2 15:0.2 16:0.2 17:0.2 18:0.326498 19:0.254386 20:0.152232 21:0.27414 22:0.207952 23:0.361619 25:0.00345078 26:0.0050221 27:0.0150596 28:0.0110192 29:0.00945777 
1 1:0.010101 3:1 5:1 8:1 11:0.241379 12:0.3 13:0.4 14:0.4 18:0.166325 19:0.0858179 20:0.078109 21:0.146008 22:0.0657746 23:0.249451 
1 1:0.040404 3:1 6:1 8:1 11:0.534483 12:0.3 13:0.4 14:0.2 15:0.2 16:0.4 17:0.4 18:0.173513 19:0.094436 20:0.103399 21:0.191441 22:0.1141 23:0.286371 25:0.00108712 26:0.00334806 27:0.00190338 29:0.00232283 
1 1:0.0707071 3:1 5:1 8:1 11:0.189655 12:0.1 13:0.1 14:0.1 15:0.1 16:0.1 17:0.1 18:0.146695 19:0.0664093 20:0.0864539 21:0.160325 22:0.0806481 23:0.277969 24:0.000227806 25:0.000118153 26:0.000222088 28:0.0518347 29:0.0857857 
1 1:0.343434 2:1 4:1 8:1 11:0.293103 14:0.1 15:0.2 16:0.2 18:0.161083 19:0.0701304 20:0.110593 21:0.193327 22:0.0815246 23:0.268605 24:0.00107721 25:0.0265654 27:0.00142351 28:0.0232669 29:0.0204742 
1 1:0.020202 2:1 6:1 8:1 11:0.396552 12:0.4 13:0.4 14:0.4 15:0.2 16:0.2 17:0.2 18:0.16303 19:0.0876154 20:0.0983626 21:0.181541 22:0.103852 23:0.280191 24:0.00515138 26:0.00167403 27:0.00193237 28:0.00468901 29:0.00567466 
1 1:0.0505051 2:1 4:1 8:1 11:0.293103 12:0.4 13:0.2 14:0.2 15:0.2 16:0.4 17:0.4 18:0.173077 19:0.0958548 20:0.104131 21:0.192784 22:0.115805 23:0.287673 24:0.0022895 25:0.00118747 26:0.00312486 27:0.00241546 29:0.00283733 
1 1:0.141414 3:1 6:1 8:1 11:0.413793 12:0.2 13:0.2 14:0.2 15:0.2 16:0.2 17:0.2 18:0.271655 19:0.203443 20:0.167402 21:0.282132 22:0.211752 23:0.364623 24:0.00624691 25:0.00336112 26:0.00517388 27:0.00772947 28:0.0113709 29:0.00945777 
1 1:0.0606061 2:1 4:1 9:1 11:0.0689655 12:0.1 13:0.4 14:0.4 15:0.4 16:0.4 17:0.2 18:0.149736 19:0.0705186 20:0.0887099 21:0.164715 22:0.085247 23:0.264753 24:0.00125923 26:0.000696397 28:0.00117225 29:0.00189155 
1 1:0.393939 3:1 6:1 8:1 11:0.344828 12:0.2 13:0.2 14:0.2 15:0.2 16:0.2 17:0.2 18:0.162878 19:0.0779561 20:0.0934876 21:0.172026 22:0.0984418 23:0.276371 24:0.00299925 25:0.000593733 27:0.0224557 28:0.0166835 29:0.00242119 
1 1:0.010101 3:1 5:1 9:1 11:0.482759 12:0.3 13:0.4 14:0.4 15:0.4 16:0.2 17:0.2 18:0.163082 19:0.0834282 20:0.0970674 21:0.177988 22:0.0970189 23:0.275877 25:0.0017812 27:0.00161031 28:0.00703352 29:0.00378311 
1 1:0.494949 3:1 6:1 9:1 11:0.534483 18:0.146519 19:0.0662204 20:0.0863446 21:0.160138 22:0.0806481 23:0.260979 
1 1:0.010101 3:1 4:1 9:1 11:0.0344828 12:0.3 13:0.4 14:0.4 15:0.4 16:0.2 17:0.2 18:0.155728 19:0.0758018 20:0.0928925 21:0.170914 22:0.0931379 23:0.271379 25:0.00118747 27:0.00241546 28:0.00304786 
1 1:0.020202 2:1 4:1 9:1 11:0.12069 12:0.1 13:0.4 14:0.4 15:0.2 16:0.2 17:0.2 18:0.147572 19:0.06822 20:0.0869475 21:0.161172 22:0.0818856 23:0.261733 24:0.00125694 27:0.00158132 28:0.000351676 
1 1:0.0505051 3:1 5:1 8:1 11:0.0862069 12:0.2 13:0.2 14:0.4 15:0.2 16:0.2 17:0.2 18:0.200141 19:0.124426 20:0.118621 21:0.215218 22:0.137938 23:0.307845 24:0.00630071 26:0.00257131 27:0.0036409 28:0.0107847 29:0.00397226 
1 1:0.191919 2:1 4:1 9:1 11:0.224138 12:0.3 14:0.1 15:0.2 16:0.2 18:0.144988 19:0.0645786 20:0.0869546 21:0.161184 22:0.0806193 23:0.258067 25:0.0017812 
1 1:0.212121 3:1 5:1 8:1 11:0.465517 12:0.2 13:0.2 14:0.2 15:0.2 16:0.2 17:0.2 18:0.171413 19:0.0950349 20:0.103577 21:0.190808 22:0.115372 23:0.289737 24:0.00309083 25:0.000910786 26:0.00189724 27:0.00483092 28:0.00703352 29:0.00567466 
1 1:0.393939 3:1 6:1 8:1 11:0.5 12:0.4 13:0.1 14:0.1 15:0.1 16:0.1 18:0.151406 19:0.073844 20:0.0863446 21:0.160656 22:0.0806481 23:0.260979 24:0.00920037 26:0.000613812 
1 1:0.393939 3:1 5:1 9:1 11:0.310345 12:0.3 18:0.146519 19:0.0662204 20:0.0863446 21:0.160138 22:0.0806481 23:0.260979 
1 1:0.313131 3:1 5:1 9:1 11:0.137931 12:0.3 13:0.4 14:0.2 15:0.2 16:0.5 17:0.4 18:0.228875 19:0.152321 20:0.137239 21:0.260197 22:0.184081 23:0.340325 25:0.00207807 26:0.0168519 27:1.77134e-05 28:0.00733596 29:2.08071e-05 
1 1:0.010101 2:1 6:1 9:1 11:0.655172 12:0.3 13:0.4 14:0.4 15:0.6 16:0.5 17:0.4 18:0.163397 19:0.0837604 20:0.0975061 21:0.178616 22:0.0997883 23:0.261757 25:0.00136559 29:0.00533607 
1 1:0.0707071 3:1 5:1 9:1 11:0.0517241 12:0.1 13:0.1 18:0.148595 19:0.0662204 20:0.0863446 21:0.160138 22:0.0806481 23:0.260979 
1 1:0.0707071 3:1 5:1 8:1 11:0.275862 12:0.4 13:0.4 14:0.4 15:0.2 16:0.2 17:0.2 18:0.217759 19:0.143786 20:0.129594 21:0.232499 22:0.150374 23:0.25978 24:0.00354873 26:0.00223204 27:0.00483092 29:0.141872 
1 1:0.10101 3:1 4:1 8:1 11:0.172414 12:0.4 13:0.4 14:0.4 15:0.2 16:0.2 17:0.2 18:0.24165 19:0.168779 20:0.132005 21:0.234958 22:0.160206 23:0.322005 24:0.00911222 26:0.00334806 27:0.00483092 28:0.00726797 29:0.00567466 
1 1:0.131313 3:1 4:1 9:1 11:0.12069 12:0.2 13:0.2 14:0.2 15:0.2 16:0.2 17:0.2 18:0.268665 19:0.19996 20:0.165446 21:0.294259 22:0.222251 23:0.369823 24:0.00755536 25:0.00415613 26:0.00591491 27:0.00966184 28:0.0128948 29:0.0104035 
1 1:0.020202 3:1 6:1 8:1 11:0.344828 12:0.2 13:0.2 14:0.2 15:0.2 16:0.2 17:0.2 18:0.181233 19:0.102034 20:0.10645 21:0.192874 22:0.113597 23:0.285732 24:0.00185221 25:0.00118747 26:0.00167403 27:0.00241546 28:0.00468901 29:0.00236066 
1 1:0.040404 3:1 5:1 9:1 11:0.0689655 12:0.3 18:0.146519 19:0.0662204 20:0.0863446 21:0.160138 22:0.0806481 23:0.260979 29:0.014565 
1 1:0.020202 2:1 5:1 8:1 11:0.396552 12:0.3 13:0.5 14:0.4 15:0.4 16:0.4 17:0.4 18:0.167023 19:0.0875954 20:0.0983483 21:0.182082 22:0.103239 23:0.279661 26:0.00200884 28:0.00447801 29:0.00147541 
1 1:0.494949 3:1 4:1 8:1 11:0.275862 12:0.3 18:0.146519 19:0.0662204 20:0.0863446 21:0.160138 22:0.0806481 23:0.260979 
1 1:0.020202 2:1 5:1 9:1 11:0.258621 12:0.2 13:0.2 14:0.2 15:0.2 16:0.2 17:0.2 18:0.178485 19:0.099947 20:0.105209 21:0.190705 22:0.111023 23:0.284516 24:0.00286188 25:0.00131512 26:0.00129012 27:0.00193237 28:0.00703352 29:0.00567466 
1 1:0.010101 2:1 5:1 9:1 11:0.396552 12:0.3 13:0.4 14:0.2 15:0.2 16:0.2 17:0.2 18:0.152302 19:0.0721851 20:0.0905569 21:0.168041 22:0.0896723 23:0.268507 25:0.000890599 26:0.00111602 27:0.00161031 28:0.00234451 29:0.00189155 
1 2:1 5:1 9:1 11:0.0862069 12:0.2 13:0.2 14:0.2 15:0.2 16:0.2 17:0.2 18:0.15325 19:0.0728921 20:0.0909862 21:0.169043 22:0.0863833 23:0.260979 24:0.0022895 25:0.00118747 26:0.00111602 
1 1:0.232323 3:1 5:1 8:1 11:0.327586 12:0.1 13:0.1 14:0.1 15:0.2 16:0.1 17:0.4 18:0.149679 19:0.0684013 20:0.0877897 21:0.160989 22:0.0861602 23:0.263091 24:0.00264323 25:0.00156567 26:2.23204e-06 27:0.00896457 28:1.87561e-05 29:0.00516394 
1 1:0.141414 2:1 5:1 9:1 11:0.258621 12:0.1 13:0.1 18:0.151282 19:0.0662204 20:0.0863446 21:0.160138 22:0.0806481 23:0.260979 
1 1:0.131313 2:1 4:1 9:1 11:0.189655 12:0.3 14:0.1 15:0.2 16:0.2 17:0.2 18:0.146516 19:0.0655751 20:0.0873461 21:0.161558 22:0.0809456 23:0.26082 25:0.0017812 29:0.00378311 
1 1:0.040404 3:1 6:1 8:1 11:0.362069 12:0.4 13:0.4 14:0.4 15:0.2 16:0.2 17:0.4 18:0.186304 19:0.111929 20:0.107584 21:0.198791 22:0.123877 23:0.293826 24:0.00457901 26:0.00334806 27:0.00519807 29:0.00756621 
1 1:0.0707071 2:1 4:1 8:1 11:0.413793 12:0.1 13:0.1 14:0.1 15:0.1 16:0.1 17:0.1 18:0.147823 19:0.0676184 20:0.0999444 21:0.163308 22:0.0821087 23:0.295033 24:0.00168622 25:0.0147068 26:0.00375653 27:0.00237198 28:0.103894 29:0.00756621 
1 1:0.020202 3:1 6:1 8:1 11:0.603448 12:0.4 13:0.4 14:0.4 15:0.4 16:0.4 17:0.4 18:0.162131 19:0.0838382 20:0.0962103 21:0.179585 22:0.102131 23:0.277247 24:0.00171713 26:0.00334806 27:0.00241546 29:0.00359395 
1 1:0.0808081 2:1 4:1 8:1 11:0.241379 12:0.2 13:0.2 14:0.4 15:0.4 16:0.4 17:0.4 18:0.160635 19:0.0840432 20:0.0968736 21:0.177634 22:0.100203 23:0.275775 24:0.00354873 25:0.000593733 27:0.00257649 29:0.00151324 
1 1:0.0909091 3:1 5:1 8:1 11:0.327586 12:0.3 13:0.4 14:0.4 15:0.1 16:0.2 17:0.1 18:0.150532 19:0.0695857 20:0.0851883 21:0.16818 22:0.0810348 23:0.261094 26:0.0118789 28:0.000351676 29:0.00147541 
1 1:0.0909091 2:1 5:1 8:1 11:0.172414 12:0.5 13:0.4 14:0.1 15:0.2 16:0.2 17:0.1 18:0.148289 19:0.0671695 20:0.0879917 21:0.162022 22:0.0816397 23:0.261862 25:0.0017812 28:0.00269618 
1 1:0.0707071 2:1 6:1 8:1 11:0.62069 12:0.4 13:0.4 14:0.4 15:0.4 16:0.4 17:0.4 18:0.153095 19:0.0756111 20:0.0918004 21:0.169208 22:0.0911299 23:0.269239 24:0.00297635 25:0.000207807 27:0.00177134 28:0.00117225 29:0.00245902 
1 1:0.131313 2:1 4:1 9:1 11:0.103448 12:0.1 13:0.1 14:0.1 15:0.2 16:0.1 17:0.1 18:0.147255 19:0.0662204 20:0.0867976 21:0.160523 22:0.0811647 23:0.261298 25:0.00048983 27:0.000850242 28:0.000975315 29:0.00200316 
1 1:0.292929 2:1 4:1 8:1 11:0.568966 12:0.1 13:0.1 14:0.1 15:0.1 16:0.1 17:0.1 18:0.146701 19:0.0667471 20:0.0863446 21:0.160814 22:0.0811121 23:0.26126 24:0.000635337 26:0.000801304 27:0.000753623 28:0.000858089 
1 1:0.020202 3:1 5:1 9:1 11:0.172414 12:0.3 13:0.4 14:0.2 15:0.2 16:0.4 17:0.5 18:0.170636 19:0.0913991 20:0.101639 21:0.188101 22:0.111644 23:0.284393 25:0.00105209 26:0.00290166 27:0.00354267 
1 1:0.323232 2:1 5:1 8:1 11:0.5 12:0.3 13:0.1 14:0.1 15:0.1 16:0.1 17:0.1 18:0.146508 19:0.0688303 20:0.0863298 21:0.165172 22:0.0970744 23:0.261743 24:0.00316295 26:0.00599415 27:0.0268084 28:0.00234451 29:0.00188588 
1 1:0.0707071 3:1 5:1 8:1 11:0.431034 12:0.3 17:0.1 18:0.146519 19:0.0662204 20:0.0863446 21:0.160138 22:0.0806481 23:0.261478 28:0.00152393 
1 1:0.282828 3:1 5:1 8:1 11:0.275862 12:0.1 13:0.2 14:0.2 15:0.2 16:0.2 17:0.2 18:0.147783 19:0.0688217 20:0.0885567 21:0.165273 22:0.0869515 23:0.266547 24:0.00171713 25:0.000890599 26:0.00167403 27:0.00161031 28:0.00234451 29:0.00189155 
1 1:0.0707071 2:1 6:1 9:1 11:0.37931 12:0.9 13:0.8 14:0.7 15:0.6 16:0.5 17:0.4 18:0.218258 19:0.141462 20:0.128493 21:0.231157 22:0.154749 23:0.278813 29:0.00378311 
1 1:0.242424 2:1 4:1 8:1 11:0.431034 12:0.1 13:0.1 14:0.1 15:0.1 16:0.1 17:0.1 18:0.147578 19:0.0662024 20:0.0880582 21:0.162372 22:0.0811459 23:0.2625 25:0.00186432 26:0.00266394 27:0.000811594 28:0.00466322 29:0.0362232 
1 2:1 5:1 9:1 11:0.0517241 12:0.1 13:0.1 14:0.1 15:0.1 16:0.1 17:0.1 18:0.14653 19:0.0662318 20:0.0863512 21:0.160149 22:0.08066 23:0.260988 29:0.00263493 
1 1:0.040404 2:1 4:1 8:1 11:0.5 12:0.3 13:0.4 14:0.2 15:0.2 16:0.2 17:0.2 18:0.190102 19:0.108287 20:0.108136 21:0.187853 22:0.0933957 23:0.260979 24:0.00174117 25:0.000798571 26:0.00231463 27:0.000383253 
1 1:0.020202 2:1 5:1 8:1 11:0.206897 12:0.3 18:0.146519 19:0.0662204 20:0.0863446 21:0.160138 22:0.0806481 23:0.260979 
1 1:0.040404 3:1 5:1 8:1 11:0.189655 12:0.1 13:0.1 14:0.1 15:0.1 16:0.1 17:0.4 18:0.146864 19:0.0665906 20:0.0865587 21:0.160505 22:0.0815702 23:0.261278 24:0.000446453 25:0.000231556 26:0.000435248 27:0.00149758 29:0.00147541 
1 1:0.222222 3:1 4:1 9:1 11:0.241379 12:0.1 13:0.1 18:0.148846 19:0.0662204 20:0.0863446 21:0.160138 22:0.0806481 23:0.260979 
1 1:0.494949 3:1 4:1 9:1 11:0.241379 18:0.146455 19:0.0661512 20:0.0863045 21:0.160069 22:0.0805757 23:0.260923 
1 1:0.171717 3:1 6:1 9:1 11:0.0862069 12:0.2 13:0.2 14:0.2 15:0.2 16:0.2 17:0.2 18:0.209967 19:0.129078 20:0.117779 21:0.210756 22:0.126471 23:0.291488 24:0.00337702 25:0.00130621 26:0.00223204 27:0.00805153 28:0.00468901 29:0.00435057 
1 1:0.020202 3:1 5:1 9:1 11:0.0172414 12:0.2 13:0.2 14:0.2 15:0.2 16:0.2 17:0.2 18:0.173234 19:0.0937281 20:0.102115 21:0.187792 22:0.110582 23:0.281202 24:0.00175376 25:0.00128781 26:0.00111602 27:0.00193237 28:0.00468901 29:0.00283733 
1 1:0.232323 2:1 4:1 8:1 11:0.448276 12:0.3 13:0.4 14:0.4 15:0.4 16:0.4 17:0.4 18:0.268724 19:0.194317 20:0.161701 21:0.296214 22:0.227007 23:0.372463 24:0.000572376 25:0.0035624 26:0.0122762 27:0.00901771 29:0.0209527 
1 1:0.0909091 2:1 5:1 9:1 11:0.206897 12:0.7 13:0.6 14:0.5 15:0.4 16:0.4 17:0.4 18:0.226886 19:0.150268 20:0.133703 21:0.242232 22:0.165562 23:0.330916 26:0.00357127 28:0.0159497 29:0.0131463 
1 1:0.0505051 3:1 5:1 8:1 11:0.224138 12:0.2 13:0.2 14:0.2 15:0.2 16:0.2 17:0.2 18:0.194583 19:0.118963 20:0.094667 21:0.174691 22:0.0964467 23:0.273347 24:0.00317096 25:0.000757009 26:0.000607116 27:0.00631723 28:0.00134809 29:0.00112737 
1 1:0.111111 2:1 4:1 9:1 11:0.189655 12:0.1 13:0.1 14:0.1 15:0.1 16:0.1 17:0.1 18:0.147307 19:0.0665906 20:0.0865587 21:0.161532 22:0.0806481 23:0.265956 24:0.000446453 25:0.000231556 26:0.00165171 28:0.0151854 
1 1:0.040404 2:1 5:1 8:1 11:0.517241 12:0.2 13:0.2 14:0.2 15:0.2 16:0.2 17:0.2 18:0.184093 19:0.107678 20:0.109545 21:0.166262 22:0.0872301 23:0.266379 24:0.00220708 25:0.000712479 26:0.000334806 27:0.000389694 28:0.00117225 29:0.000945777 
1 1:0.020202 3:1 4:1 9:1 11:0.0689655 12:0.5 13:0.4 14:0.2 15:0.2 16:0.2 17:0.2 18:0.159076 19:0.0784629 20:0.0923874 21:0.165398 22:0.0858717 23:0.264139 25:0.00121478 29:0.00173077 
1 1:0.040404 3:1 5:1 8:1 11:0.431034 12:0.3 13:0.4 14:0.4 15:0.4 16:0.4 17:0.4 18:0.184785 19:0.106342 20:0.111181 21:0.203296 22:0.125239 23:0.297596 25:0.00237493 26:0.00178563 28:0.00797132 
1 1:0.040404 2:1 5:1 8:1 11:0.517241 12:0.2 13:0.2 14:0.2 15:0.4 16:0.4 17:0.8 18:0.156769 19:0.0814533 20:0.100469 21:0.183703 22:0.114743 23:0.286529 24:0.00572376 25:0.00593733 27:0.0161031 29:0.0189155 
1 1:0.282828 3:1 4:1 8:1 11:0.431034 12:0.2 13:0.2 14:0.2 15:0.2 16:0.2 17:0.2 18:0.152373 19:0.0742815 20:0.0920195 21:0.174387 22:0.100167 23:0.283476 24:0.0022895 25:0.00118747 26:0.00558011 27:0.00805153 28:0.0234451 29:0.00945777 
1 1:0.141414 2:1 5:1 8:1 11:0.189655 12:0.2 13:0.2 14:0.2 15:0.2 16:0.2 17:0.2 18:0.273682 19:0.199198 20:0.162398 21:0.291384 22:0.221598 23:0.346614 24:0.00687996 25:0.00297282 26:0.00559796 27:0.0162657 28:0.0117366 29:0.00759459 
1 1:0.262626 2:1 5:1 8:1 11:0.224138 12:0.4 13:0.2 14:0.2 15:0.2 16:0.2 17:0.2 18:0.390369 19:0.329657 20:0.214085 21:0.301716 22:0.214319 23:0.360609 24:0.0118276 25:0.00593733 26:0.0201118 27:0.0129243 28:0.0140928 29:0.00945777 
1 1:0.010101 2:1 5:1 8:1 11:0.172414 12:0.3 13:0.4 14:0.2 15:0.2 16:0.2 17:0.2 18:0.165664 19:0.0849628 20:0.0970339 21:0.178842 22:0.0996336 23:0.276632 25:0.000773634 26:0.000770055 27:0.00137037 28:0.00398566 
1 1:0.010101 2:1 6:1 8:1 11:0.517241 12:0.1 13:0.1 18:0.148554 19:0.0662204 20:0.0863446 21:0.160138 22:0.0806481 23:0.260979 
1 1:0.414141 3:1 4:1 9:1 11:0.224138 12:0.1 13:0.1 14:0.1 15:0.1 16:0.1 17:0.1 18:0.158206 19:0.0720892 20:0.0900188 21:0.161116 22:0.0816783 23:0.262134 24:0.00712264 25:0.00577287 26:0.00116624 27:0.00167794 28:0.00353786 29:0.0174307 
1 1:0.161616 3:1 4:1 9:1 11:0.224138 12:0.1 13:0.1 14:0.1 15:0.1 16:0.1 17:0.1 18:0.146808 19:0.0665298 20:0.0865236 21:0.160445 22:0.0811201 23:0.261345 24:0.000373189 25:0.000193557 26:0.000363823 27:0.000766506 28:0.00111599 29:0.000616646 
1 1:0.0505051 2:1 6:1 8:1 11:0.172414 12:0.3 13:0.4 14:0.2 15:0.2 16:0.2 17:0.2 18:0.207851 19:0.123218 20:0.11646 21:0.196746 22:0.119453 23:0.290987 25:0.00136143 26:0.0015256 27:0.0022657 28:0.00330575 29:0.00264817 
1 3:1 5:1 9:1 12:0.2 13:0.2 14:0.2 15:0.1 16:0.1 18:0.154182 19:0.0754792 20:0.0910444 21:0.160873 22:0.0806481 23:0.260979 24:0.00206055 25:0.000771853 26:0.000892817 28:0.00445456 
1 1:0.373737 2:1 4:1 8:1 11:0.344828 12:0.1 13:0.1 14:0.1 18:0.149976 19:0.0787979 20:0.0863424 21:0.160134 22:0.0806441 23:0.260976 24:0.0152767 
1 1:0.151515 3:1 5:1 9:1 11:0.0517241 12:0.2 13:0.2 14:0.2 15:0.2 16:0.2 17:0.2 18:0.192863 19:0.115417 20:0.108222 21:0.196983 22:0.120246 23:0.292693 24:0.0019186 25:0.00115184 26:0.00156243 27:0.00233655 28:0.00468901 29:0.00289975 
1 1:0.131313 3:1 4:1 9:1 11:0.172414 17:0.1 18:0.160636 19:0.0898665 20:0.0930286 21:0.163869 22:0.0836922 23:0.262751 24:0.0287882 25:0.0072281 26:0.00442056 27:0.00494364 28:0.00540643 29:0.000851199 
1 1:0.222222 2:1 5:1 9:1 11:0.275862 12:0.3 18:0.146519 19:0.0662204 20:0.0863446 21:0.160138 22:0.0806481 23:0.260979 
1 1:0.020202 2:1 6:1 8:1 11:0.741379 12:0.4 13:0.4 14:0.4 15:0.2 16:0.2 17:0.2 18:0.158548 19:0.0795809 20:0.0943315 21:0.174554 22:0.0965687 23:0.276499 24:0.00114475 25:0.000593733 26:0.00111602 27:0.00161031 28:0.0107847 
1 1:0.0606061 2:1 6:1 8:1 11:0.413793 12:0.4 13:0.2 14:0.2 15:0.2 16:0.2 17:0.2 18:0.206253 19:0.124676 20:0.112106 21:0.204584 22:0.128301 23:0.298548 24:0.00297635 25:0.00122071 26:0.00189724 27:0.00322061 28:0.00468901 29:0.00378311 
1 1:0.040404 2:1 6:1 9:1 11:0.103448 12:0.2 13:0.2 14:0.2 15:0.2 16:0.2 17:0.2 18:0.191274 19:0.110378 20:0.112035 21:0.20528 22:0.129713 23:0.260979 24:0.00244748 25:0.000831226 26:0.00334806 27:0.00805153 
1 1:0.0909091 2:1 4:1 8:1 11:0.672414 12:0.2 13:0.2 14:0.2 15:0.2 16:0.2 17:0.2 18:0.236566 19:0.162833 20:0.142272 21:0.255965 22:0.177924 23:0.337459 24:0.00441416 25:0.00232684 26:0.00444846 27:0.00622383 28:0.00881534 29:0.00730707 
1 1:0.191919 2:1 4:1 8:1 11:0.413793 12:0.3 13:0.1 14:0.1 18:0.146519 19:0.066675 20:0.0863446 21:0.160138 22:0.0806481 23:0.260979 24:0.000548336 
1 1:0.020202 2:1 6:1 9:1 11:0.0344828 12:0.4 13:0.2 14:0.2 15:0.2 16:0.2 17:0.2 18:0.172308 19:0.095089 20:0.102869 21:0.184523 22:0.106138 23:0.260979 24:0.00232728 25:0.000843101 27:0.000148148 
1 1:0.0909091 2:1 5:1 8:1 11:0.241379 12:0.3 13:0.4 14:0.4 15:0.4 16:0.4 17:0.4 18:0.198834 19:0.120888 20:0.120734 21:0.221361 22:0.143937 23:0.313112 25:0.0035624 26:0.00446409 28:0.011957 29:0.00416142 
1 1:0.494949 2:1 4:1 8:1 11:0.37931 12:0.2 13:0.2 14:0.2 15:0.2 16:0.2 17:0.2 18:0.503836 19:0.450236 20:0.312595 21:0.553661 22:0.505642 23:0.585179 24:0.0194608 25:0.00979659 26:0.0167403 27:0.0305958 28:0.0422761 29:0.00945777 
1 1:0.151515 3:1 6:1 9:1 11:0.275862 12:0.4 13:0.4 14:0.2 15:0.2 16:0.2 17:0.4 18:0.161231 19:0.0814761 20:0.0959474 21:0.179659 22:0.104398 23:0.279314 25:0.00118747 26:0.0039496 27:0.00574235 28:0.00104565 29:0.00567466 
1 1:0.040404 3:1 5:1 8:1 11:0.413793 12:0.2 13:0.2 14:0.2 15:0.2 16:0.2 17:0.2 18:0.177593 19:0.0910575 20:0.100119 21:0.180004 22:0.102214 23:0.278182 24:0.00164959 25:0.000890599 26:0.000843712 27:0.00161031 28:0.00234451 29:0.0015681 
1 1:0.141414 3:1 5:1 9:1 11:0.0517241 12:0.4 13:0.4 14:0.4 15:0.1 16:0.1 17:0.1 18:0.202697 19:0.12956 20:0.0867531 21:0.16552 22:0.0814503 23:0.262758 24:0.00495677 25:1.7812e-06 26:0.00643052 27:0.00130918 28:0.00543457 29:0.00305675 
1 1:0.040404 2:1 6:1 8:1 11:0.275862 12:0.5 13:0.4 14:0.4 15:0.2 16:0.2 17:0.2 18:0.173429 19:0.0957637 20:0.102985 21:0.187363 22:0.109617 23:0.283236 24:0.00171713 26:0.00113388 27:0.00168438 28:0.00264695 29:0.00164376 
1 1:0.161616 2:1 5:1 9:1 11:0.224138 12:0.1 13:0.1 14:0.1 15:0.1 16:0.1 17:0.1 18:0.149002 19:0.0665298 20:0.0867158 21:0.160445 22:0.0809713 23:0.261229 24:0.000746378 25:0.000401363 26:0.000363823 27:0.00052496 28:0.000764309 29:0.00325726 
1 1:0.040404 3:1 4:1 9:1 11:0.241379 12:0.2 13:0.2 14:0.2 15:0.2 16:0.2 17:0.2 18:0.189511 19:0.11285 20:0.113908 21:0.169597 22:0.100564 23:0.268339 24:0.00254135 25:0.00135905 26:0.000539038 27:0.000563607 28:0.000783065 29:0.000756621 
1 1:0.20202 2:1 5:1 8:1 11:0.344828 12:0.4 13:0.4 14:0.4 15:0.4 16:0.4 17:0.4 18:0.224128 19:0.15199 20:0.136136 21:0.246695 22:0.173709 23:0.334549 24:0.00549481 25:0.00148433 26:0.00435248 27:0.00547504 28:0.00797132 29:0.00643128 
1 1:0.252525 3:1 4:1 9:1 11:0.137931 12:0.1 13:0.1 14:0.1 15:0.1 16:0.1 17:0.1 18:0.149824 19:0.0662128 20:0.0890157 21:0.160615 22:0.0844032 23:0.262088 25:0.00289326 26:0.000565823 27:0.00609823 28:0.00338312 
1 1:0.313131 3:1 4:1 9:1 11:0.12069 12:0.3 14:0.1 15:0.1 16:0.1 17:0.1 18:0.146519 19:0.0662204 20:0.0870035 21:0.160138 22:0.081243 23:0.265541 25:0.000712479 27:0.000966184 28:0.0139193 29:0.00088903 
1 1:0.010101 3:1 4:1 9:1 11:0.0517241 12:0.1 13:0.1 14:0.1 15:0.1 16:0.1 17:0.1 18:0.149444 19:0.0683994 20:0.0940636 21:0.168748 22:0.081712 23:0.261363 24:0.00262835 25:0.00877359 26:0.0102004 27:0.00172786 28:0.00117225 
1 1:0.171717 2:1 4:1 8:1 11:0.431034 12:0.2 13:0.2 14:0.2 15:0.2 18:0.288614 19:0.229116 20:0.187725 21:0.160138 22:0.0806481 23:0.260979 24:0.0156991 25:0.00979659 
1 1:0.141414 3:1 4:1 9:1 11:0.0862069 12:0.4 13:0.4 14:0.4 15:0.4 16:0.4 17:0.4 18:0.213216 19:0.139168 20:0.129287 21:0.232071 22:0.159867 23:0.297906 24:0.00377768 25:0.00189995 27:0.00827214 29:0.00416142 
1 1:0.494949 2:1 4:1 8:1 11:0.327586 12:0.1 13:0.1 14:0.1 15:0.1 16:0.1 17:0.1 18:0.156819 19:0.0783974 20:0.0926696 21:0.171899 22:0.0921592 23:0.270708 24:0.014694 25:0.00684277 26:0.013938 27:0.0187021 28:0.0296932 29:0.00102711 
1 1:0.121212 3:1 4:1 9:1 11:0.137931 12:0.1 13:0.1 14:0.1 15:0.1 16:0.2 17:0.2 18:0.146767 19:0.0680748 20:0.0865115 21:0.161059 22:0.0812946 23:0.261229 24:0.002333 25:0.000184651 26:0.00111602 29:0.000616646 
1 1:0.040404 2:1 5:1 8:1 11:0.534483 12:0.4 13:0.2 14:0.2 15:0.2 16:0.2 17:0.1 18:0.170896 19:0.0933418 20:0.102629 21:0.188963 22:0.0803506 23:0.267923 24:0.00169194 25:0.000926223 26:0.00167403 28:0.0218907 29:0.000610972 
1 1:0.040404 3:1 4:1 9:1 11:0.103448 12:0.3 13:0.4 14:0.2 15:0.2 16:0.4 17:0.4 18:0.165831 19:0.0863275 20:0.09942 21:0.185023 22:0.106289 23:0.283837 25:0.0017812 26:0.00334806 28:0.0105503 
1 1:0.020202 2:1 6:1 9:1 11:0.655172 12:0.3 13:0.4 14:0.2 15:0.2 16:0.2 17:0.2 18:0.158453 19:0.0785426 20:0.0940263 21:0.173433 22:0.0949326 23:0.272269 25:0.000907224 26:0.00072653 27:0.00107568 28:0.0015802 29:0.00129193 
1 1:0.040404 2:1 5:1 8:1 11:0.37931 12:0.2 13:0.2 14:0.2 15:0.2 16:0.2 17:0.2 18:0.160625 19:0.079653 20:0.0946401 21:0.173443 22:0.0945637 23:0.272464 24:0.00143666 25:0.000718417 26:0.000543503 27:0.000818035 28:0.00359647 29:0.000994957 
1 1:0.20202 3:1 5:1 9:1 11:0.224138 12:0.3 13:0.1 14:0.1 15:0.1 16:0.1 18:0.146519 19:0.0672406 20:0.0864703 21:0.16089 22:0.0806481 23:0.260979 24:0.00123061 25:0.000135965 26:0.000891701 29:0.00425032 
1 1:0.171717 3:1 4:1 9:1 11:0.189655 12:0.4 13:0.4 14:0.4 15:0.4 16:0.4 17:0.4 18:0.211663 19:0.139286 20:0.129269 21:0.237988 22:0.164672 23:0.324979 24:0.00515138 25:0.0017812 26:0.00636132 27:0.00563607 29:0.00605297 
1 1:0.010101 2:1 5:1 8:1 11:0.258621 12:0.3 13:0.4 14:0.4 15:0.2 16:0.2 17:0.2 18:0.151444 19:0.0724147 20:0.0897893 21:0.166232 22:0.087952 23:0.26716 24:0.0013737 26:0.000334806 27:0.00161031 28:0.00187561 
1 1:0.333333 3:1 4:1 9:1 11:0.448276 12:0.2 13:0.2 14:0.2 15:0.2 16:0.2 17:0.2 18:0.435049 19:0.388188 20:0.268644 21:0.424318 22:0.360776 23:0.477073 24:0.0229752 25:0.00756831 26:0.0106937 27:0.0323188 28:0.0424168 29:0.038024 
1 1:0.0505051 3:1 4:1 9:1 11:0.224138 12:0.2 13:0.2 14:0.2 15:0.2 16:0.2 17:0.2 18:0.195583 19:0.11203 20:0.108903 21:0.184175 22:0.106702 23:0.281737 24:0.00249327 25:0.00089713 26:0.00133923 27:0.0020934 28:0.00304786 29:0.00236822 
1 1:0.010101 2:1 4:1 9:1 11:0.0689655 12:0.3 18:0.146519 19:0.0662204 20:0.0863446 21:0.160138 22:0.0806481 23:0.260979 
1 1:0.010101 3:1 5:1 9:1 12:0.3 13:0.5 14:0.4 15:0.4 16:0.1 17:0.1 18:0.165104 19:0.0854478 20:0.0916626 21:0.160138 22:0.087474 23:0.260979 24:4.46453e-05 26:0.00558011 27:0.0221401 
1 1:0.030303 3:1 5:1 9:1 11:0.0517241 12:0.3 13:0.4 14:0.2 15:0.2 16:0.4 17:0.4 18:0.179163 19:0.100407 20:0.106655 21:0.196335 22:0.120187 23:0.291159 25:0.00118093 26:0.00270412 27:0.00322061 29:0.00189155 
1 1:0.040404 3:1 4:1 8:1 11:0.293103 12:0.2 13:0.2 14:0.1 15:0.1 16:0.1 17:0.1 18:0.164151 19:0.0867745 20:0.0882361 21:0.160231 22:0.0815891 23:0.261084 24:0.00475988 25:0.00207807 26:0.00111602 27:0.00161031 28:0.000468901 29:0.0017024 
1 1:0.010101 2:1 6:1 9:1 11:0.0517241 12:0.2 13:0.2 14:0.2 15:0.2 16:0.2 17:0.4 18:0.157304 19:0.0784667 20:0.0941503 21:0.173665 22:0.096652 23:0.273495 24:0.0013966 25:0.000910193 26:0.000754431 27:0.00350564 28:0.00131058 
1 1:0.040404 2:1 6:1 10:1 11:0.586207 12:0.2 13:0.2 14:0.2 15:0.2 16:0.2 17:0.2 18:0.18683 19:0.105484 20:0.109154 21:0.17239 22:0.0967442 23:0.272469 24:0.00225287 25:0.00109425 26:0.000484353 27:0.00805153 28:0.0013645 29:0.00128436 
1 1:0.191919 2:1 4:1 9:1 11:0.275862 12:0.4 13:0.4 14:0.4 15:0.4 16:0.4 17:0.4 18:0.285562 19:0.224319 20:0.178796 21:0.314795 22:0.248252 23:0.393222 24:0.0154541 25:0.0035624 27:0.0120773 28:0.014067 29:0.00756621 
1 1:0.232323 3:1 4:1 8:1 11:0.637931 12:0.3 13:0.1 14:0.1 15:0.1 17:0.1 18:0.146519 19:0.0664311 20:0.0873878 21:0.160138 22:0.0806481 23:0.265155 24:0.000254135 25:0.00112809 28:0.0127424 29:0.0132409 
1 1:0.0606061 3:1 5:1 9:1 11:0.12069 12:0.3 13:0.4 14:0.4 15:0.4 16:0.2 17:0.2 18:0.209112 19:0.134564 20:0.125994 21:0.226811 22:0.142646 23:0.315869 24:0.00343425 25:0.00130621 27:0.00483092 28:0.0234451 29:0.0189155 
1 1:0.020202 2:1 6:1 9:1 11:0.12069 12:0.4 13:0.4 14:0.4 15:0.4 16:0.4 17:0.5 18:0.146785 19:0.0665051 20:0.0865093 21:0.16042 22:0.0819371 23:0.261862 27:0.00161031 28:0.000351676 
1 1:0.010101 3:1 5:1 9:1 11:0.603448 12:0.2 13:0.2 14:0.2 15:0.2 16:0.2 17:0.2 18:0.161643 19:0.0829196 20:0.0948679 21:0.174086 22:0.0941998 23:0.273483 24:0.00343425 25:0.00178476 26:0.00391277 27:0.00563607 28:0.0164373 29:0.0134773 
1 1:0.0707071 3:1 5:1 8:1 11:0.0344828 12:0.4 13:0.2 14:0.2 15:0.2 16:0.2 17:0.2 18:0.219635 19:0.194226 20:0.123309 21:0.224807 22:0.150442 23:0.319954 24:0.00286188 25:0.00142733 26:0.00334806 27:0.00450886 28:0.0180527 
1 1:0.151515 3:1 5:1 9:1 11:0.103448 12:0.4 13:0.4 14:0.4 15:0.4 16:0.4 17:0.4 18:0.28617 19:0.219306 20:0.175796 21:0.312251 22:0.235153 23:0.390301 24:0.00858564 25:0.00344365 26:0.00636132 28:0.0424356 
1 1:0.030303 3:1 5:1 9:1 11:0.0689655 12:0.2 13:0.2 14:0.2 15:0.4 16:0.2 17:0.2 18:0.181111 19:0.104007 20:0.108755 21:0.196952 22:0.118418 23:0.29184 24:0.00225173 25:0.00195932 27:0.00225443 28:0.00726797 
1 1:0.0505051 3:1 5:1 8:1 11:0.551724 12:0.1 13:0.1 14:0.1 15:0.1 16:0.1 17:0.1 18:0.146864 19:0.0665906 20:0.0865587 21:0.160505 22:0.0811835 23:0.261278 24:0.000446453 25:0.000231556 26:0.000435248 27:0.000869565 28:0.000914358 29:0.000737706 
1 1:0.242424 3:1 6:1 8:1 11:0.586207 12:0.2 13:0.2 14:0.2 15:0.2 16:0.2 17:0.2 18:0.409297 19:0.29179 20:0.184157 21:0.330631 22:0.234853 23:0.357087 24:0.00915801 25:0.00439362 26:0.0108254 27:0.00821256 28:0.0105503 29:0.00758891 
1 1:0.0707071 2:1 4:1 9:1 11:0.293103 12:0.1 13:0.1 14:0.1 15:0.2 16:0.1 17:0.1 18:0.147209 19:0.0664662 20:0.0904866 21:0.160505 22:0.0810348 23:0.261234 24:0.000296491 25:0.00447912 27:0.000628019 28:0.000778376 29:0.00147541 
1 1:0.171717 3:1 4:1 8:1 11:0.155172 12:0.1 13:0.1 18:0.148946 19:0.0662204 20:0.0863446 21:0.160138 22:0.0806481 23:0.260979 
1 1:0.0707071 2:1 4:1 9:1 11:0.12069 18:0.154127 19:0.0752049 20:0.0861964 21:0.16362 22:0.0900234 23:0.264163 24:0.0108374 26:0.00442726 27:0.0152254 28:0.0117225 29:0.00548551 
1 1:0.030303 3:1 4:1 9:1 11:0.103448 12:0.1 13:0.1 14:0.2 15:0.2 16:0.2 17:0.1 18:0.175313 19:0.0796615 20:0.102875 21:0.189873 22:0.112956 23:0.285039 24:0.0162131 25:0.0118747 26:0.00334806 27:0.00483092 28:0.0744357 
1 1:0.151515 3:1 5:1 9:1 11:0.275862 12:0.4 13:0.4 14:0.4 15:0.4 16:0.4 17:0.4 18:0.276892 19:0.202678 20:0.169712 21:0.299516 22:0.236246 23:0.383487 24:0.00022895 25:0.00712479 27:0.0185185 28:0.0136239 
1 1:0.171717 2:1 5:1 8:1 11:0.293103 12:0.3 13:0.4 14:0.4 15:0.2 16:0.2 17:0.2 18:0.14902 19:0.0705974 20:0.0888543 21:0.164915 22:0.0857993 23:0.260979 24:0.0022895 25:0.000118747 26:0.000558011 27:0.000199678 
1 1:0.0505051 2:1 5:1 9:1 11:0.0862069 12:0.4 13:0.4 14:0.4 15:0.4 16:0.2 17:0.2 18:0.200588 19:0.124472 20:0.120472 21:0.27331 22:0.140566 23:0.305698 24:0.00343425 25:0.00163039 27:0.00369887 28:0.00439595 29:0.00219042 
1 1:0.111111 2:1 4:1 8:1 11:0.5 12:0.3 15:0.1 16:0.2 17:0.1 18:0.146519 19:0.0643148 20:0.0841396 21:0.163921 22:0.0826392 23:0.267356 26:0.0112049 28:0.0194571 
1 1:0.020202 3:1 4:1 8:1 11:0.0517241 12:0.1 13:0.1 14:0.1 15:0.1 16:0.1 17:0.1 18:0.154731 19:0.0687287 20:0.0882196 21:0.162257 22:0.0831131 23:0.261627 24:0.00302558 25:0.0020276 26:0.00251105 27:0.00400322 28:0.00197876 
1 1:0.262626 3:1 5:1 9:1 11:0.0862069 12:0.2 13:0.1 14:0.2 15:0.2 16:0.1 17:0.1 18:0.175919 19:0.115973 20:0.124255 21:0.224387 22:0.0980104 23:0.281094 24:0.0600136 25:0.0163841 26:0.011543 27:0.0291192 28:0.0616113 29:0.032181 
1 1:0.171717 3:1 4:1 8:1 11:0.155172 12:0.2 13:0.2 14:0.2 15:0.2 16:0.2 17:0.4 18:0.278428 19:0.210774 20:0.17215 21:0.311951 22:0.251386 23:0.375454 24:0.00858564 25:0.00474986 26:0.0100442 27:0.0225443 29:0.0104035 
1 1:0.333333 3:1 5:1 9:1 11:0.206897 12:0.2 13:0.2 14:0.2 15:0.2 16:0.2 17:0.2 18:0.444008 19:0.352472 20:0.254667 21:0.453834 22:0.396284 23:0.510757 24:0.0117909 25:0.00611664 26:0.0115676 27:0.0173108 28:0.0261412 29:0.0213197 
1 1:0.0707071 2:1 5:1 8:1 11:0.551724 12:0.2 13:0.2 14:0.2 18:0.151652 19:0.0725467 20:0.0863446 21:0.160138 22:0.0806481 23:0.260979 24:0.00114475 
1 1:0.141414 3:1 5:1 9:1 11:0.12069 12:0.2 13:0.2 14:0.2 15:0.2 16:0.2 17:0.2 18:0.221839 19:0.150536 20:0.137046 21:0.238196 22:0.156416 23:0.322656 24:0.00572376 25:0.00296866 26:0.00558011 27:0.00805153 28:0.0117225 29:0.00945777 
1 1:0.191919 3:1 4:1 9:1 11:0.155172 12:0.1 13:0.1 14:0.1 15:0.1 16:0.1 17:0.1 18:0.146612 19:0.0664776 20:0.0866674 21:0.160242 22:0.0809505 23:0.261311 24:0.000310228 25:0.000349115 26:0.000123878 27:0.000491143 28:0.00101283 
1 1:0.040404 2:1 6:1 9:1 11:0.0517241 12:0.6 13:0.5 14:0.4 15:0.4 16:0.4 17:0.2 18:0.170611 19:0.0913773 20:0.101156 21:0.185765 22:0.107055 23:0.28187 25:0.000712479 26:0.00108031 28:0.00233982 29:0.00279761 
1 1:0.010101 3:1 4:1 9:1 11:0.0689655 12:0.1 13:0.2 14:0.2 15:0.2 16:0.2 17:0.2 18:0.160492 19:0.0822647 20:0.0961922 21:0.165785 22:0.0884666 23:0.2684 24:0.0015706 25:0.000890599 26:0.00111602 27:0.00322061 28:0.00468901 
1 1:0.0505051 3:1 5:1 8:1 11:0.482759 12:0.3 18:0.146519 19:0.0662204 20:0.0863446 21:0.160138 22:0.0806481 23:0.260979 
1 1:0.434343 2:1 4:1 8:1 11:0.172414 12:0.3 13:0.4 14:0.4 15:0.4 16:0.2 17:0.2 18:0.38921 19:0.319832 20:0.284548 21:0.300836 22:0.222201 23:0.352454 25:0.0593769 27:0.00966184 28:0.00937803 29:0.0151324 
1 1:0.272727 2:1 4:1 8:1 11:0.413793 12:0.1 13:0.1 14:0.1 15:0.1 16:0.1 17:0.1 18:0.148528 19:0.0678366 20:0.0863364 21:0.189286 22:0.0961473 23:0.274433 24:0.00194951 26:0.0345498 27:0.0251707 28:0.0410476 29:0.0190082 
1 1:0.010101 3:1 5:1 9:1 11:0.0344828 12:0.4 13:0.4 14:0.9 15:0.9 16:0.9 17:0.8 18:0.148643 19:0.0684981 20:0.0876623 21:0.162399 22:0.0830278 23:0.262362 
1 1:0.191919 3:1 5:1 8:1 11:0.103448 12:0.3 13:0.5 14:0.4 15:0.4 16:0.4 17:0.4 18:0.309333 19:0.239349 20:0.186631 21:0.324559 22:0.260572 23:0.397108 24:0.00595271 25:0.00415613 27:0.0214171 29:0.0117276 
1 1:0.040404 3:1 4:1 9:1 11:0.482759 12:0.4 13:0.4 14:0.6 15:0.6 16:0.6 17:0.6 18:0.146652 19:0.0663628 20:0.086427 21:0.160279 22:0.0807968 23:0.261094 
1 1:0.131313 3:1 4:1 8:1 11:0.275862 12:0.2 13:0.2 14:0.4 15:0.4 16:0.4 17:0.4 18:0.256577 19:0.192806 20:0.160845 21:0.289826 22:0.214877 23:0.367379 24:0.0125923 25:0.0035624 26:0.00636132 28:0.0128948 29:0.00945777 
1 1:0.0606061 3:1 5:1 8:1 11:0.103448 12:0.4 13:0.2 14:0.2 15:0.2 16:0.2 17:0.2 18:0.213825 19:0.135848 20:0.125291 21:0.210009 22:0.131189 23:0.299926 24:0.00343425 25:0.00207807 26:0.00608232 27:0.00950081 28:0.00726797 29:0.00501262 
1 1:0.292929 3:1 6:1 9:1 11:0.310345 12:0.3 14:0.1 15:0.1 16:0.1 17:0.1 18:0.143043 19:0.0605519 20:0.0889443 21:0.165965 22:0.0807631 23:0.272067 24:0.00196897 25:0.204521 26:0.0076135 27:7.8905e-05 28:0.0351676 29:0.0226986 
1 1:0.020202 3:1 4:1 9:1 11:0.0517241 12:0.1 13:0.1 14:0.1 15:0.1 16:0.4 17:0.4 18:0.146665 19:0.066377 20:0.0864352 21:0.160442 22:0.0808048 23:0.260189 24:0.000188884 25:9.79659e-05 26:0.000360475 29:0.0104546 
1 1:0.363636 2:1 4:1 8:1 11:0.327586 12:0.3 18:0.146519 19:0.0662204 20:0.0863446 21:0.160138 22:0.0806481 23:0.260979 
1 1:0.141414 3:1 4:1 8:1 11:0.137931 12:0.1 13:0.1 14:0.1 15:0.1 16:0.1 17:0.2 18:0.147048 19:0.0692459 20:0.10493 21:0.164494 22:0.0816744 23:0.261378 24:0.00364947 25:0.0200979 26:0.0051616 27:0.00166667 
1 1:0.232323 3:1 4:1 8:1 11:0.275862 12:0.4 13:0.2 14:0.2 15:0.2 18:0.251291 19:0.17988 20:0.125903 21:0.160138 22:0.0806481 23:0.260979 24:0.00640832 25:0.00237493 
1 1:0.121212 3:1 5:1 9:1 11:0.310345 12:0.4 13:0.4 14:0.4 15:0.4 16:0.2 17:0.2 18:0.190793 19:0.115988 20:0.11544 21:0.208693 22:0.132867 23:0.302275 24:0.00400663 25:0.00118747 27:0.00338164 28:0.00492346 29:0.00416142 
1 1:0.020202 3:1 4:1 9:1 11:0.37931 12:0.3 13:0.4 14:0.4 15:0.4 16:0.2 17:0.2 18:0.162248 19:0.0839559 20:0.0981424 21:0.179775 22:0.101632 23:0.277739 24:0.00171713 25:0.00203829 27:0.00128824 28:0.00234451 29:0.00189155 
1 2:1 4:1 9:1 11:0.0517241 12:0.2 13:0.2 14:0.4 15:0.2 16:0.2 17:0.2 18:0.15025 19:0.0723663 20:0.0897618 21:0.166117 22:0.0933957 23:0.267187 24:0.00286188 26:0.000253337 27:0.000384863 28:0.00799946 
1 1:0.020202 2:1 5:1 9:1 11:0.517241 12:0.7 13:0.6 14:0.5 15:0.4 16:0.5 17:0.4 18:0.170014 19:0.0907576 20:0.100151 21:0.185147 22:0.106279 23:0.28041 26:0.00235815 29:0.00414439 
1 1:0.444444 3:1 5:1 9:1 11:0.258621 12:0.3 18:0.146519 19:0.0662204 20:0.0863446 21:0.160138 22:0.0806481 23:0.260979 
1 1:0.010101 2:1 6:1 8:1 11:0.103448 12:0.2 13:0.2 14:0.4 15:0.2 16:0.2 17:0.2 18:0.16438 19:0.0858672 20:0.0973567 21:0.178585 22:0.10047 23:0.276691 24:0.00337702 25:1.18747e-06 26:0.000766707 27:0.00114171 28:0.00226245 29:0.00105738 
1 1:0.040404 2:1 4:1 9:1 11:0.0862069 12:0.1 13:0.1 14:0.1 15:0.1 16:0.4 17:0.4 18:0.146985 19:0.0667196 20:0.0866334 21:0.16194 22:0.0818637 23:0.262325 24:0.000602139 25:0.000312304 26:0.00213495 28:0.00246642 
1 1:0.191919 2:1 5:1 9:1 11:0.206897 12:0.2 13:0.2 14:0.2 15:0.2 16:0.2 17:0.4 18:0.217321 19:0.143759 20:0.132074 21:0.240287 22:0.169599 23:0.309998 24:0.0034022 25:0.0017527 26:0.00346748 27:0.00975201 29:0.00567466 
1 1:0.191919 3:1 4:1 8:1 11:0.413793 12:0.1 13:0.1 14:0.1 15:0.1 17:0.1 18:0.159905 19:0.0680141 20:0.0883755 21:0.160483 22:0.079131 23:0.264677 24:0.00217045 25:0.00220394 26:0.000422972 27:0.00195974 28:0.0226292 29:3.02649e-05 
1 1:0.353535 2:1 5:1 8:1 11:0.482759 12:0.3 18:0.146519 19:0.0662204 20:0.0863446 21:0.160138 22:0.0806481 23:0.260979 
1 2:1 6:1 8:1 11:0.448276 12:0.2 13:0.2 14:0.4 15:0.2 16:0.2 17:0.4 18:0.152551 19:0.0748746 20:0.0911905 21:0.168473 22:0.0901344 23:0.268099 24:0.00296262 26:0.000354895 27:0.00138808 29:0.00094956 
1 1:0.161616 3:1 5:1 8:1 11:0.362069 12:0.1 13:0.1 14:0.1 15:0.1 16:0.1 17:0.1 18:0.147479 19:0.0665298 20:0.0865236 21:0.160445 22:0.0809713 23:0.261229 24:0.000373189 25:0.000193557 26:0.000363823 27:0.00052496 28:0.000764309 29:0.000616646 
1 1:0.040404 2:1 5:1 8:1 11:0.344828 12:0.2 13:0.2 14:0.2 15:0.2 16:0.2 17:0.2 18:0.189018 19:0.112462 20:0.102596 21:0.179119 22:0.0997179 23:0.274153 24:0.00343425 25:0.000949973 26:0.00223651 27:0.00322061 28:0.00234451 29:0.00756621 
1 1:0.222222 3:1 4:1 9:1 11:0.275862 12:0.2 13:0.2 14:0.4 15:0.2 16:0.2 18:0.154565 19:0.0780918 20:0.0933636 21:0.171992 22:0.0806481 23:0.260979 24:0.00400663 25:0.000415613 
1 1:0.222222 2:1 6:1 8:1 11:0.689655 12:0.3 18:0.146519 19:0.0662204 20:0.0863446 21:0.160138 22:0.0806481 23:0.260979 
1 1:0.0505051 2:1 4:1 9:1 11:0.172414 12:0.4 13:0.4 14:0.4 15:0.4 16:0.4 17:0.4 18:0.200879 19:0.121028 20:0.118848 21:0.214357 22:0.133193 23:0.308106 25:0.00283211 26:0.00251105 28:0.117225 
1 1:0.040404 2:1 5:1 9:1 11:0.0517241 12:0.3 13:0.5 14:0.4 15:0.2 16:0.1 17:0.1 18:0.193361 19:0.11457 20:0.0988298 21:0.162318 22:0.0824557 23:0.275456 27:0.00293559 28:0.0441682 29:0.00121249 
1 1:0.010101 3:1 5:1 9:1 11:0.0344828 12:0.2 13:0.2 14:0.2 15:0.2 16:0.4 17:0.4 18:0.156752 19:0.0786176 20:0.0942162 21:0.174829 22:0.0957239 23:0.274157 24:0.0022895 25:0.000890599 26:0.00167403 28:0.00515791 
1 1:0.0505051 2:1 6:1 9:1 11:0.224138 12:0.1 13:0.1 14:0.1 15:0.1 16:0.1 17:0.1 18:0.146808 19:0.0665298 20:0.0865236 21:0.160445 22:0.0811201 23:0.261229 24:0.000373189 25:0.000193557 26:0.000363823 27:0.000766506 28:0.000764309 29:0.000616646 
1 1:0.010101 2:1 5:1 9:1 11:0.0517241 12:0.4 13:0.4 14:0.2 15:0.2 16:0.4 17:0.2 18:0.159939 19:0.0801123 20:0.0948998 21:0.176914 22:0.0978865 23:0.275147 25:0.000890599 26:0.00279005 28:0.00351676 29:0.00283733 
1 1:0.121212 2:1 4:1 9:1 11:0.155172 12:0.2 13:0.2 14:0.2 15:0.2 16:0.2 17:0.2 18:0.262178 19:0.19194 20:0.157487 21:0.282435 22:0.204973 23:0.356994 24:0.00744089 25:0.00279054 26:0.00558011 27:0.00740741 28:0.0121914 29:0.00851199 
1 1:0.020202 3:1 5:1 8:1 11:0.431034 12:0.3 13:0.4 14:0.4 15:0.4 16:0.4 17:0.4 18:0.171192 19:0.0936825 20:0.102886 21:0.188914 22:0.11171 23:0.284562 24:0.00206055 25:0.00117559 26:0.00133923 27:0.00225443 29:0.00151324 
1 1:0.0909091 3:1 5:1 9:1 11:0.0689655 12:0.4 13:0.2 14:0.2 15:0.2 16:0.2 17:0.2 18:0.224761 19:0.151353 20:0.136825 21:0.227208 22:0.149863 23:0.315609 24:0.00412111 25:0.00237493 26:0.00279005 27:0.00434783 28:0.00609572 29:0.00491804 
1 1:0.191919 2:1 4:1 8:1 11:0.258621 12:0.2 13:0.2 14:0.4 15:0.4 16:0.4 17:0.2 18:0.148595 19:0.0707777 20:0.0888587 21:0.165639 22:0.0862038 23:0.26586 24:0.00286188 26:0.00167403 28:0.00234451 29:0.00189155 
1 1:0.020202 3:1 6:1 8:1 11:0.431034 12:0.4 13:0.4 14:0.4 15:0.4 16:0.5 17:0.4 18:0.166298 19:0.0884201 20:0.0994711 21:0.183513 22:0.104578 23:0.280258 24:0.00194608 25:0.000712479 26:0.00178563 28:0.00351676 
1 1:0.292929 2:1 4:1 8:1 11:0.413793 12:0.1 13:0.1 14:0.1 15:0.1 16:0.1 17:0.1 18:0.147403 19:0.0592603 20:0.0909198 21:0.166417 22:0.0889108 23:0.267382 25:0.0142496 26:0.0074394 27:0.0161031 28:0.0195368 29:0.0292226 
1 1:0.010101 2:1 6:1 8:1 11:0.5 12:0.4 13:0.4 14:0.4 15:0.2 16:0.2 17:0.2 18:0.159871 19:0.082389 20:0.0959292 21:0.176969 22:0.0989207 23:0.275672 24:0.00251845 25:0.000593733 26:0.00111602 27:0.00161031 28:0.00234451 29:0.0017024 
1 1:0.212121 3:1 5:1 8:1 11:0.189655 17:0.1 18:0.309088 19:0.229691 20:0.18285 21:0.330443 22:0.263741 23:0.389973 24:0.00714668 25:0.00378564 26:0.00886344 27:0.0133172 28:0.398566 29:0.0113531 
1 1:0.121212 3:1 5:1 9:1 11:0.224138 12:0.2 13:0.2 14:0.2 15:0.2 16:0.4 17:0.2 18:0.234647 19:0.161517 20:0.143235 21:0.261425 22:0.183813 23:0.337973 24:0.00463624 25:0.0033249 26:0.00870497 28:0.00914358 29:0.00586382 
1 1:0.020202 3:1 5:1 9:1 11:0.0344828 12:0.4 13:0.2 14:0.2 15:0.2 16:0.2 17:0.2 18:0.173559 19:0.0950358 20:0.102309 21:0.188425 22:0.106792 23:0.2832 24:0.00171713 25:0.000949973 26:0.00167403 27:0.00161031 28:0.00703352 
1 1:0.040404 2:1 5:1 9:1 11:0.0689655 12:0.5 13:0.4 14:0.2 15:0.2 16:0.2 17:0.2 18:0.19122 19:0.0878403 20:0.100106 21:0.172315 22:0.0991815 23:0.275804 24:1.03028e-05 25:0.000718417 26:0.00111602 27:0.00966184 28:0.00248518 29:0.00147541 
1 1:0.252525 3:1 4:1 9:1 11:0.189655 18:0.146519 19:0.0662204 20:0.088107 21:0.160138 22:0.0806481 23:0.263063 25:0.00190588 28:0.0063583 
1 1:0.252525 3:1 5:1 9:1 11:0.396552 12:0.3 18:0.146519 19:0.0662204 20:0.0863446 21:0.160138 22:0.0806481 23:0.260979 
1 1:0.040404 2:1 5:1 9:1 11:0.0689655 12:0.2 13:0.1 14:0.4 15:0.2 16:0.2 17:0.2 18:0.147893 19:0.0685475 20:0.0873757 21:0.161534 22:0.0809713 23:0.260925 24:0.00280693 29:0.00567466 
1 1:0.020202 2:1 4:1 9:1 11:0.344828 12:0.2 13:0.2 14:0.2 15:0.4 16:0.4 17:0.2 18:0.160764 19:0.0824773 20:0.0965683 21:0.178052 22:0.0990625 23:0.275783 24:0.00182817 25:0.00123971 26:0.00111602 28:0.00234685 29:0.00071879 
1 1:0.0808081 2:1 5:1 10:1 11:0.327586 12:0.2 13:0.2 14:0.2 15:0.2 16:0.1 17:0.1 18:0.241155 19:0.133707 20:0.100228 21:0.168402 22:0.0844022 23:0.261278 24:0.00224944 25:0.00300666 26:0.00558792 27:0.00609984 28:0.000914358 29:0.000737706 
1 1:0.20202 3:1 6:1 8:1 11:0.586207 12:0.2 13:0.2 14:0.2 15:0.2 16:0.2 17:0.2 18:0.338553 19:0.260219 20:0.198556 21:0.298209 22:0.22395 23:0.374666 24:0.00921411 25:0.0053436 26:0.00669613 27:0.00885668 28:0.0136356 29:0.0104035 
1 1:0.020202 2:1 6:1 9:1 11:0.172414 12:0.5 13:0.4 14:0.2 15:0.2 16:0.2 17:0.4 18:0.173586 19:0.0917114 20:0.0979651 21:0.180184 22:0.103393 23:0.27821 25:0.000977284 26:0.000850408 27:0.00322061 29:0.00122384 
1 1:0.0707071 2:1 4:1 8:1 11:0.327586 12:0.2 13:0.2 14:0.4 15:0.4 16:0.4 17:0.4 18:0.171344 19:0.0958311 20:0.103691 21:0.189139 22:0.11487 23:0.287872 24:0.00412111 25:0.000712479 27:0.00683736 28:0.00281341 29:0.00283733 
1 1:0.20202 3:1 4:1 8:1 11:0.258621 12:0.3 18:0.146519 19:0.0662204 20:0.0863446 21:0.160138 22:0.0806481 23:0.260979 
1 1:0.121212 2:1 5:1 8:1 11:0.396552 12:0.4 13:0.2 14:0.2 15:0.2 16:0.2 17:0.4 18:0.160993 19:0.0826263 20:0.0973211 21:0.181171 22:0.10441 23:0.278983 24:0.00171713 25:0.0017812 26:0.00334806 27:0.00322061 29:0.00283733 
1 1:0.111111 3:1 5:1 9:1 11:0.0517241 12:0.2 13:0.2 14:0.2 15:0.2 16:0.2 17:0.1 18:0.177198 19:0.100012 20:0.101204 21:0.18458 22:0.0924319 23:0.263366 24:0.00232728 25:0.000712479 28:0.00728438 29:0.0161576 
1 1:0.121212 3:1 5:1 9:1 11:0.0689655 12:0.2 13:0.2 14:0.2 15:0.2 16:0.5 17:0.4 18:0.241727 19:0.170515 20:0.147872 21:0.282821 22:0.207549 23:0.361116 24:0.00460534 25:0.00239274 26:0.0223204 28:0.0105503 
1 1:0.020202 3:1 5:1 8:1 11:0.603448 12:0.4 13:0.4 14:0.4 15:0.4 16:0.5 17:0.4 18:0.169533 19:0.0919306 20:0.101525 21:0.187735 22:0.108951 23:0.283361 24:0.00206055 25:0.000771853 26:0.00267845 28:0.00281341 29:0.00472888 
1 1:0.151515 3:1 5:1 9:1 11:0.0344828 12:0.1 13:0.4 14:0.2 15:0.2 16:0.2 17:0.1 18:0.249353 19:0.150249 20:0.12385 21:0.206177 22:0.117595 23:0.264258 25:0.00147424 26:0.00100442 27:0.0322061 28:0.010004 29:0.0466438 
1 1:0.353535 3:1 6:1 9:1 11:0.362069 18:0.146519 19:0.0662204 20:0.0863446 21:0.160138 22:0.0806481 23:0.260979 
1 1:0.0909091 3:1 4:1 9:1 11:0.293103 12:0.4 13:0.4 14:0.4 15:0.4 16:0.4 17:0.4 18:0.179401 19:0.103944 20:0.10847 21:0.198604 22:0.121827 23:0.293791 24:0.00400663 25:0.000890599 26:0.00167403 27:0.00241546 28:0.00468901 29:0.00283733 
1 1:0.0808081 3:1 5:1 9:1 11:0.0344828 12:0.4 13:0.5 14:0.5 15:0.4 16:0.4 17:0.4 18:0.219631 19:0.148426 20:0.132667 21:0.237491 22:0.164331 23:0.326868 24:0.00675403 27:0.0057971 28:0.00679907 29:0.00662044 
1 1:0.323232 3:1 4:1 9:1 11:0.310345 12:0.1 13:0.1 14:0.1 16:0.1 17:0.1 18:0.148264 19:0.0677256 20:0.0863446 21:0.160138 22:0.0822227 23:0.260979 24:0.00181558 27:0.00255717 
1 1:0.121212 2:1 4:1 9:1 11:0.275862 12:0.2 13:0.2 14:0.2 15:0.2 16:0.2 17:0.2 18:0.249248 19:0.161404 20:0.138533 21:0.250706 22:0.178129 23:0.334542 24:0.00417491 25:0.00249249 26:0.00389492 27:0.00611916 28:0.00919047 29:0.00652018 
1 1:0.141414 3:1 6:1 9:1 11:0.189655 12:0.2 13:0.2 14:0.2 15:0.2 16:0.2 17:0.2 18:0.247336 19:0.148963 20:0.131087 21:0.232744 22:0.147011 23:0.30008 24:0.00286188 25:0.0017812 26:0.00223204 27:0.00805153 28:0.0118515 29:0.00945777 
1 1:0.323232 2:1 4:1 8:1 11:0.37931 12:0.3 18:0.146519 19:0.0662204 20:0.0863446 21:0.160138 22:0.0806481 23:0.260979 
1 1:0.191919 2:1 5:1 9:1 11:0.258621 12:0.2 13:0.2 14:0.2 15:0.2 16:0.2 17:0.2 18:0.314753 19:0.250838 20:0.192955 21:0.338604 22:0.266121 23:0.404748 24:0.0103028 25:0.0053436 26:0.00892817 27:0.0161031 28:0.0187561 29:0.0132409 
1 1:0.10101 2:1 5:1 9:1 11:0.12069 12:0.4 13:0.4 14:0.4 15:0.4 16:0.2 17:0.2 18:0.24522 19:0.174102 20:0.149058 21:0.264581 22:0.18745 23:0.330197 24:0.00618166 25:0.00237493 27:0.00644122 28:0.00867467 29:0.00756621 
1 1:0.020202 3:1 5:1 8:1 11:0.103448 12:0.2 13:0.2 14:0.4 15:0.4 16:0.4 17:0.4 18:0.165661 19:0.0892505 20:0.0998357 21:0.183567 22:0.105861 23:0.280852 24:0.00377768 25:0.000593733 26:0.00111602 27:0.00177134 28:0.00234451 29:0.00208071 
1 1:0.010101 2:1 5:1 8:1 11:0.258621 12:0.3 13:0.4 14:0.4 15:0.4 16:0.4 17:0.2 18:0.163337 19:0.0836997 20:0.0975808 21:0.179336 22:0.0989385 23:0.275271 25:0.00159714 26:0.00100442 28:0.00234451 29:0.00189155 
1 1:0.0707071 3:1 5:1 8:1 11:0.275862 12:0.3 13:0.4 14:0.2 15:0.2 16:0.2 17:0.2 18:0.217221 19:0.127732 20:0.115337 21:0.213857 22:0.139603 23:0.303724 24:2.40398e-05 25:0.00108 26:0.00558011 27:0.00644122 28:0.00937803 29:0.0035826 
1 1:0.333333 3:1 5:1 9:1 11:0.293103 18:0.146519 19:0.0669607 20:0.0863446 21:0.160138 22:0.0806481 23:0.260979 24:0.000892906 
1 1:0.262626 2:1 4:1 9:1 11:0.12069 12:0.6 13:0.6 14:0.5 15:0.4 16:0.4 17:0.4 18:0.357016 19:0.287154 20:0.211305 21:0.377502 22:0.314589 23:0.445872 26:0.00937458 27:0.0144928 28:0.0203972 29:0.017024 
1 1:0.10101 2:1 5:1 9:1 11:0.448276 12:0.4 13:0.4 14:0.4 15:0.4 16:0.4 17:0.4 18:0.193432 19:0.119871 20:0.117916 21:0.215206 22:0.140019 23:0.306135 24:0.00572376 25:0.00148433 26:0.00279005 27:0.00402576 29:0.00945777 
1 1:0.292929 2:1 4:1 8:1 11:0.637931 12:0.3 13:0.4 14:0.4 15:0.4 16:0.4 17:0.4 18:0.286534 19:0.218295 20:0.172089 21:0.316089 22:0.248471 23:0.393775 24:0.00686851 26:0.0133923 27:0.010467 28:0.0152393 29:0.0122951 
1 1:0.0606061 3:1 4:1 9:1 11:0.12069 12:0.4 13:0.4 14:0.4 15:0.4 16:0.4 17:0.4 18:0.19943 19:0.121518 20:0.121445 21:0.220976 22:0.146297 23:0.31291 25:0.00396139 26:0.00256685 27:0.00450886 28:0.00609572 
1 1:0.040404 3:1 5:1 9:1 11:0.258621 12:0.2 13:0.2 14:0.2 15:0.2 16:0.2 17:0.2 18:0.179551 19:0.0971019 20:0.10095 21:0.185909 22:0.108429 23:0.282952 24:0.00171713 25:0.000890599 26:0.00133923 27:0.00177134 28:0.00244298 29:0.00190858 
1 1:0.191919 2:1 6:1 9:1 11:0.258621 18:0.187056 19:0.0662204 20:0.0863446 21:0.160138 22:0.0806481 23:0.260979 29:0.0770127 
1 1:0.0707071 2:1 6:1 9:1 11:0.396552 12:0.4 13:0.2 14:0.2 15:0.2 18:0.216381 19:0.141942 20:0.124953 21:0.160138 22:0.0806481 23:0.260979 24:0.00322248 25:0.00110316 
1 1:0.121212 3:1 6:1 8:1 11:0.293103 12:0.2 13:0.2 14:0.2 15:0.2 16:0.2 17:0.2 18:0.2354 19:0.157132 20:0.137277 21:0.205806 22:0.128024 23:0.293533 24:0.00402495 25:0.00244143 26:0.00223986 27:0.00405153 28:0.0026235 29:0.00192182 
1 1:0.121212 2:1 4:1 9:1 11:0.206897 12:0.3 15:0.1 16:0.2 17:0.2 18:0.146519 19:0.0662204 20:0.0863446 21:0.16814 22:0.0870734 23:0.260979 26:0.0094806 
1 1:0.0707071 2:1 6:1 8:1 11:0.293103 12:0.1 13:0.1 14:0.4 15:0.2 16:0.1 17:0.4 18:0.152067 19:0.0798978 20:0.0932296 21:0.161326 22:0.0833303 23:0.261948 24:0.0222322 27:0.00435588 29:0.00238525 
1 1:0.0606061 3:1 5:1 8:1 11:0.12069 12:0.2 13:0.2 14:0.2 15:0.2 16:0.2 17:0.2 18:0.186992 19:0.100485 20:0.101434 21:0.187009 22:0.110448 23:0.284324 24:0.00459732 25:0.00118747 26:0.00223204 27:0.00322061 28:0.00468901 29:0.00378311 
1 1:0.0909091 2:1 6:1 10:1 11:0.465517 12:0.4 13:0.1 14:0.2 15:0.2 16:0.2 17:0.2 18:0.155823 19:0.0741999 20:0.0892271 21:0.168955 22:0.0847115 23:0.261594 24:0.0148909 25:0.000664387 26:0.00793491 27:0.000177134 28:0.00023914 
1 1:0.262626 2:1 5:1 8:1 11:0.551724 12:0.4 13:0.4 14:0.4 15:0.4 16:0.4 17:0.4 18:0.333787 19:0.265338 20:0.20704 21:0.362472 22:0.306809 23:0.439789 24:0.00343425 25:0.00890599 27:0.0273752 28:0.0199283 
1 1:0.131313 2:1 5:1 8:1 11:0.224138 12:0.1 13:0.1 14:0.1 15:0.1 16:0.1 17:0.1 18:0.147148 19:0.0668952 20:0.086735 21:0.170477 22:0.0813531 23:0.261525 24:0.000813918 25:0.000422144 26:0.0122495 27:0.00114493 28:0.00166694 29:0.000550442 
1 1:0.040404 2:1 5:1 9:1 11:0.0689655 12:0.5 13:0.5 14:0.4 15:0.4 16:0.4 17:0.2 18:0.170232 19:0.0921043 20:0.101459 21:0.186777 22:0.108106 23:0.28271 24:0.0013737 25:0.000593733 26:0.00167403 28:0.00281341 29:0.00226986 
1 1:0.040404 3:1 5:1 9:1 11:0.0517241 12:0.4 13:0.4 14:0.9 15:0.9 16:0.9 17:0.9 18:0.148643 19:0.0684981 20:0.0876623 21:0.162399 22:0.0830278 23:0.262823 
1 1:0.040404 3:1 4:1 9:1 11:0.0517241 12:0.2 13:0.2 14:0.2 18:0.157851 19:0.0790228 20:0.0863446 21:0.160138 22:0.0806481 23:0.260979 24:0.00861082 
1 1:0.131313 2:1 4:1 9:1 11:0.275862 12:0.2 13:0.1 14:0.2 15:0.2 16:0.2 17:0.2 18:0.149484 19:0.127485 20:0.121371 21:0.212167 22:0.13316 23:0.299877 24:0.0738994 25:0.00172064 26:0.00210928 27:0.00322061 28:0.00468901 29:0.00359395 
1 1:0.040404 2:1 5:1 9:1 11:0.258621 12:0.4 13:0.4 14:0.4 15:0.4 16:0.4 17:0.4 18:0.175631 19:0.0985596 20:0.105299 21:0.191853 22:0.115673 23:0.289096 24:0.0022895 25:0.000771853 27:0.00354267 28:0.00468901 29:0.00283733 
1 1:0.434343 3:1 5:1 8:1 11:0.448276 12:0.3 13:0.1 14:0.1 15:0.1 16:0.1 17:0.1 18:0.146514 19:0.0673213 20:0.0873367 21:0.160127 22:0.0828494 23:0.261106 24:0.00133478 25:0.00112275 27:0.00359259 28:0.000386844 29:0.00297541 
1 1:0.010101 3:1 5:1 8:1 11:0.275862 12:0.2 13:0.2 14:0.4 15:0.2 16:0.2 17:0.2 18:0.16196 19:0.0855408 20:0.0971728 21:0.178616 22:0.0997139 23:0.276255 24:0.0036632 26:0.000926298 27:0.00120773 28:0.00234451 29:0.000533418 
1 1:0.121212 2:1 5:1 8:1 11:0.103448 12:0.2 13:0.2 14:0.1 15:0.2 16:0.2 17:0.2 18:0.193523 19:0.112717 20:0.0958348 21:0.171864 22:0.0933947 23:0.270043 24:0.0035556 25:0.0133655 26:0.000669613 27:0.00161836 28:0.00235388 29:0.0019029 
1 1:0.0707071 3:1 4:1 9:1 11:0.0862069 12:0.2 13:0.2 14:0.4 15:0.4 16:0.4 17:0.4 18:0.180299 19:0.104704 20:0.109172 21:0.19932 22:0.123547 23:0.294332 24:0.00343425 25:0.00118747 26:0.00111602 27:0.00402576 28:0.00234451 29:0.00378311 
1 1:0.020202 3:1 5:1 8:1 11:0.413793 12:0.2 13:0.2 14:0.2 15:0.2 16:0.2 17:0.2 18:0.173498 19:0.0955454 20:0.103079 21:0.189456 22:0.109734 23:0.284169 24:0.0018316 25:0.000890599 26:0.00122762 27:0.00169565 28:0.00309475 29:0.00182913 
1 1:0.0606061 2:1 6:1 9:1 11:0.189655 12:0.2 13:0.2 14:0.2 15:0.2 16:0.2 17:0.2 18:0.204444 19:0.128592 20:0.111322 21:0.202981 22:0.126628 23:0.297561 24:0.00269246 25:0.00120528 26:0.00200884 27:0.00322061 28:0.00468901 29:0.00378311 
1 1:0.121212 3:1 5:1 9:1 11:0.0517241 18:0.147392 19:0.0662071 20:0.0887538 21:0.160138 22:0.0806481 23:0.261831 25:0.00261361 28:0.00260006 29:0.00794452 
1 1:0.40404 3:1 4:1 8:1 11:0.293103 12:0.4 13:0.4 14:0.4 15:0.2 16:0.2 17:0.2 18:0.306614 19:0.241071 20:0.183447 21:0.325167 22:0.245178 23:0.348991 24:0.00878024 25:1.18747e-06 26:0.0062062 27:0.00874718 28:0.0106581 29:0.00981905 
1 1:0.494949 3:1 4:1 8:1 11:0.224138 14:0.1 15:0.4 16:0.4 18:0.146519 19:0.0662204 20:0.0882663 21:0.163435 22:0.0806481 23:0.260979 25:0.00207807 
1 1:0.191919 2:1 4:1 9:1 11:0.172414 12:0.1 13:0.1 14:0.1 15:0.2 16:0.2 17:0.1 18:0.149795 19:0.0904662 20:0.0921612 21:0.167644 22:0.0834889 23:0.265301 24:0.0293949 25:0.00630722 26:2.79005e-05 27:2.57649e-05 28:0.014067 29:3.59395e-05 
1 1:0.131313 2:1 5:1 8:1 11:0.12069 12:0.2 13:0.2 14:0.2 15:0.2 16:0.2 17:0.2 18:0.244196 19:0.167187 20:0.140139 21:0.25326 22:0.181058 23:0.340535 24:0.00426878 25:0.00210122 26:0.00394848 27:0.00644122 28:0.00960544 29:0.00686823 
1 1:0.010101 2:1 6:1 8:1 11:0.344828 12:0.2 13:0.2 14:0.2 15:0.4 16:0.2 17:0.2 18:0.158222 19:0.0791794 20:0.0942843 21:0.172592 22:0.0931329 23:0.270685 24:0.00194608 25:0.00124684 27:0.00073752 28:0.00234451 29:0.00189155 
1 1:0.181818 2:1 4:1 9:1 11:0.258621 12:0.3 13:0.4 14:0.4 15:0.4 16:0.4 17:0.4 18:0.282229 19:0.208083 20:0.174191 21:0.307024 22:0.245659 23:0.391332 25:0.00771853 27:0.020934 28:0.0143015 
1 1:0.444444 2:1 6:1 8:1 11:0.362069 12:0.4 13:0.2 14:0.2 15:0.2 16:0.2 17:0.2 18:0.281599 19:0.188368 20:0.141484 21:0.232736 22:0.143961 23:0.289318 24:0.00804989 25:0.00178298 26:0.0111602 27:0.0177134 28:0.00703352 29:0.10971 
1 1:0.040404 3:1 6:1 8:1 11:0.431034 12:0.6 13:0.7 14:0.6 15:0.5 16:0.4 17:0.2 18:0.175809 19:0.0968921 20:0.103639 21:0.189102 22:0.110556 23:0.284045 28:0.00726797 29:0.00150946 
1 1:0.131313 2:1 5:1 8:1 11:0.431034 12:0.2 13:0.2 14:0.2 15:0.2 16:0.2 17:0.1 18:0.265004 19:0.1964 20:0.162889 21:0.251763 22:0.179765 23:0.327628 24:0.00621028 25:0.0029562 26:0.00414602 27:0.00724316 28:0.203334 29:0.00456243 
1 1:0.0909091 2:1 4:1 9:1 11:0.137931 12:0.4 13:0.4 14:0.4 15:0.4 16:0.4 17:0.4 18:0.212351 19:0.137698 20:0.128667 21:0.233903 22:0.159875 23:0.32371 24:0.00309083 25:0.00213744 26:0.00345967 27:0.00483092 28:0.00750242 29:0.00567466 
1 1:0.020202 2:1 5:1 8:1 11:0.448276 12:0.2 13:0.2 14:0.2 15:0.2 16:0.4 17:0.2 18:0.16813 19:0.0904017 20:0.100853 21:0.188892 22:0.109466 23:0.283282 24:0.00166561 25:0.000831226 26:0.0050221 28:0.00351676 29:0.00378311 
1 1:0.353535 2:1 5:1 8:1 11:0.344828 12:0.3 18:0.146519 19:0.0662204 20:0.0863446 21:0.160138 22:0.0806481 23:0.260979 
1 1:0.171717 3:1 5:1 9:1 11:0.224138 12:0.4 13:0.2 14:0.2 15:0.2 16:0.4 17:0.4 18:0.191989 19:0.117397 20:0.116458 21:0.214762 22:0.139585 23:0.308605 24:0.00359452 25:0.000548015 26:0.00520401 27:0.00407407 28:0.0086442 29:0.00945777 
1 1:0.020202 3:1 4:1 8:1 11:0.241379 12:0.4 13:0.2 14:0.2 15:0.2 16:0.2 17:0.2 18:0.171033 19:0.0934984 20:0.101195 21:0.185187 22:0.104321 23:0.278879 24:0.00171713 25:0.000805102 26:0.00100442 27:0.00161031 28:0.00257896 29:0.00125599 
1 1:0.0707071 2:1 5:1 9:1 11:0.551724 12:0.5 13:0.4 14:0.2 15:0.2 16:0.2 17:0.2 18:0.178054 19:0.0992305 20:0.106219 21:0.19508 22:0.118812 23:0.29198 25:0.00118747 26:0.00167403 27:0.00322061 28:0.00586127 29:0.00378311 
1 1:0.020202 2:1 4:1 9:1 11:0.0517241 12:0.4 13:0.4 14:0.2 15:0.2 16:0.2 17:0.2 18:0.160708 19:0.0809237 20:0.0952374 21:0.17584 22:0.0973709 23:0.274196 25:0.000754041 26:0.000828088 27:0.000987118 28:0.00144187 29:0.00122194 
1 1:0.151515 3:1 4:1 8:1 11:0.206897 12:0.1 13:0.1 14:0.1 15:0.1 16:0.1 17:0.1 18:0.148603 19:0.0687961 20:0.0929847 21:0.162827 22:0.084419 23:0.267827 24:0.00311258 25:0.00890599 26:0.00318624 27:0.00612399 28:0.0208919 
1 1:0.141414 2:1 6:1 8:1 11:0.241379 12:0.4 13:0.4 14:0.4 15:0.2 16:0.2 17:0.2 18:0.266169 19:0.197056 20:0.158062 21:0.278887 22:0.198482 23:0.350787 24:0.00686851 25:1.7812e-05 26:0.00563591 27:0.00809179 28:0.0117225 29:0.00567466 
1 1:0.020202 3:1 5:1 9:1 11:0.0344828 12:0.6 13:0.5 14:0.4 15:0.4 16:0.5 17:0.4 18:0.160542 19:0.0807482 20:0.0950799 21:0.175918 22:0.0967085 23:0.273722 25:0.000682793 26:0.00156243 28:0.00187561 
1 1:0.0505051 2:1 5:1 8:1 11:0.137931 12:0.4 13:0.4 14:0.4 15:0.4 16:0.4 17:0.4 18:0.182434 19:0.10574 20:0.108676 21:0.200965 22:0.124574 23:0.295731 24:0.0022895 26:0.00373644 27:0.00289855 28:0.00422011 
1 1:0.040404 3:1 5:1 9:1 11:0.0344828 12:0.4 13:0.2 14:0.2 15:0.2 16:0.2 17:0.2 18:0.189469 19:0.0949485 20:0.100775 21:0.185145 22:0.107538 23:0.282263 24:0.0022895 25:0.00118747 26:0.00111602 27:0.00161031 28:0.00241015 29:0.00189155 
1 1:0.020202 2:1 4:1 9:1 11:0.12069 12:0.1 13:0.1 14:0.4 15:0.2 16:0.2 17:0.2 18:0.154715 19:0.0774114 20:0.0925548 21:0.171272 22:0.0940917 23:0.276557 24:0.00343425 26:0.00111602 27:0.00338164 28:0.0164115 
1 1:0.030303 2:1 4:1 8:1 11:0.431034 12:0.1 13:0.4 14:0.4 15:0.1 16:0.2 17:0.2 18:0.147209 19:0.0665906 20:0.0863446 21:0.16124 22:0.0814215 23:0.260979 26:0.00130575 
1 1:0.010101 2:1 5:1 9:1 11:0.0517241 12:0.3 13:0.4 14:0.2 15:0.2 16:0.4 17:0.4 18:0.155587 19:0.0764538 20:0.0930929 21:0.173953 22:0.0948166 23:0.274446 24:0.00114475 25:0.00118747 26:0.00323646 28:0.00820577 
1 1:0.292929 3:1 6:1 9:1 11:0.0517241 12:0.1 13:0.2 14:0.2 15:0.1 16:0.2 17:0.1 18:0.153219 19:0.0720627 20:0.0893506 21:0.172931 22:0.0944606 23:0.271737 24:0.00135195 25:0.000875756 26:0.0151567 27:0.000561997 28:0.0329872 29:0.000506936 
1 1:0.181818 2:1 4:1 8:1 11:0.310345 12:0.3 18:0.146517 19:0.0662185 20:0.0860855 21:0.159693 22:0.0801801 23:0.260616 
1 1:0.0909091 2:1 4:1 9:1 11:0.103448 12:0.1 13:0.4 14:0.2 15:0.2 16:0.2 17:0.2 18:0.162052 19:0.0763067 20:0.0895488 21:0.166492 22:0.0884706 23:0.260979 25:0.000593733 26:0.00223204 27:0.00535105 
1 1:0.040404 2:1 6:1 8:1 11:0.517241 12:0.2 13:0.2 14:0.2 15:0.2 16:0.2 17:0.2 18:0.151566 19:0.0734293 20:0.0910175 21:0.169898 22:0.091594 23:0.269514 24:0.0022895 25:0.000712479 26:0.00223204 27:0.00161031 28:0.000937803 29:0.00189155 
1 1:0.383838 3:1 4:1 8:1 11:0.741379 12:0.3 17:0.1 18:0.146519 19:0.0662204 20:0.0863446 21:0.160138 22:0.0806481 23:0.26764 28:0.0203222 29:0.00849308 
1 1:0.020202 2:1 5:1 9:1 11:0.0517241 12:0.2 13:0.2 14:0.4 15:0.2 16:0.2 17:0.2 18:0.16677 19:0.090787 20:0.100165 21:0.185797 22:0.137203 23:0.283103 24:0.00423558 26:0.00279005 27:0.00338164 28:0.00703352 29:0.00321564 
1 1:0.0505051 3:1 4:1 9:1 11:0.206897 12:0.2 13:0.2 14:0.4 15:0.2 16:0.1 17:0.1 18:0.156463 19:0.0861292 20:0.0934058 21:0.167568 22:0.0880482 23:0.263432 24:0.0114475 27:0.0120177 28:0.0149673 29:0.0353796 
1 1:0.111111 2:1 5:1 9:1 11:0.0862069 12:0.2 13:0.2 14:0.2 15:0.2 16:0.2 17:0.2 18:0.248117 19:0.173802 20:0.150471 21:0.247126 22:0.168443 23:0.32263 24:0.00705052 25:0.00594208 26:0.00340498 27:0.00499195 28:0.00715543 29:0.00550064 
1 1:0.494949 3:1 4:1 8:1 11:0.362069 12:0.3 18:0.146519 19:0.0662204 20:0.0863446 21:0.160138 22:0.0806481 23:0.260979 
1 1:0.040404 3:1 6:1 9:1 11:0.517241 12:0.2 13:0.2 14:0.2 15:0.2 16:0.2 17:0.2 18:0.17011 19:0.0917579 20:0.101435 21:0.186021 22:0.108066 23:0.282383 24:0.0020182 25:0.00102656 26:0.0012399 27:0.00183092 28:0.00278527 29:0.00188588 
1 1:0.010101 2:1 6:1 8:1 11:0.517241 12:0.2 13:0.2 14:0.2 15:0.2 16:0.4 17:0.4 18:0.159209 19:0.080808 20:0.0953352 21:0.177946 22:0.099946 23:0.275555 24:0.00144926 25:0.000754041 26:0.00312486 27:0.00161031 29:0.000968475 
1 1:0.0606061 3:1 5:1 8:1 11:0.172414 12:0.1 13:0.2 14:0.2 15:0.2 16:0.4 17:0.4 18:0.15262 19:0.0817665 20:0.0966199 21:0.181455 22:0.102736 23:0.271402 24:0.0114475 25:0.0017812 26:0.00457569 28:0.00234451 
1 1:0.010101 2:1 6:1 8:1 11:0.534483 12:0.3 13:0.4 14:0.2 15:0.2 16:0.2 18:0.164958 19:0.0854022 20:0.0974067 21:0.178831 22:0.0806481 23:0.260979 25:0.000712479 26:0.000443061 
1 1:0.171717 3:1 4:1 9:1 11:0.172414 12:0.1 13:0.1 14:0.1 18:0.153828 19:0.0718396 20:0.0863446 21:0.160138 22:0.0806481 23:0.260979 24:0.00677807 
1 1:0.161616 3:1 4:1 9:1 11:0.189655 12:0.3 16:0.1 17:0.1 18:0.146519 19:0.0662204 20:0.0863446 21:0.160138 22:0.0811439 23:0.261363 27:0.000805153 28:0.00117225 29:0.000945777 
1 1:0.191919 2:1 5:1 8:1 11:0.258621 12:0.3 18:0.146519 19:0.0662204 20:0.0863446 21:0.160138 22:0.0806481 23:0.260979 
1 1:0.010101 2:1 5:1 9:1 11:0.310345 12:0.2 13:0.2 14:0.2 15:0.2 16:0.2 17:0.2 18:0.160653 19:0.0818149 20:0.0960176 21:0.176495 22:0.0982177 23:0.274612 24:0.00171713 25:0.000949973 26:0.000387259 27:0.000570048 28:0.0008323 
1 1:0.171717 3:1 5:1 9:1 11:0.224138 12:0.2 13:0.2 14:0.2 15:0.2 16:0.2 17:0.2 18:0.307024 19:0.228453 20:0.180274 21:0.27951 22:0.205373 23:0.358898 24:0.00938009 25:0.00504673 26:0.0051337 27:0.00805153 28:0.0107847 29:0.00945777 
1 1:0.373737 2:1 4:1 8:1 11:0.431034 12:0.4 13:0.4 14:0.4 15:0.4 16:0.4 17:0.4 18:0.22445 19:0.15203 20:0.13484 21:0.247264 22:0.174467 23:0.335198 24:0.00503691 26:0.00703094 27:0.00563607 28:0.00797132 
1 1:0.040404 3:1 5:1 8:1 11:0.0517241 12:0.4 13:0.2 14:0.2 15:0.2 16:0.2 17:0.2 18:0.191392 19:0.109535 20:0.102409 21:0.169032 22:0.0903575 23:0.268421 24:0.00225974 25:0.000921473 26:0.000372751 27:0.000801932 28:0.00117225 29:0.000932536 
1 1:0.0606061 3:1 5:1 9:1 11:0.155172 12:0.4 13:0.2 14:0.2 15:0.4 16:0.2 17:0.2 18:0.172865 19:0.0952057 20:0.104481 21:0.190473 22:0.113255 23:0.28679 24:0.00177436 25:0.0017812 27:0.00193237 28:0.00293063 29:0.00378311 
1 1:0.0505051 3:1 5:1 8:1 11:0.0517241 12:0.5 13:0.4 14:0.4 15:0.4 16:0.2 17:0.2 18:0.176487 19:0.0975773 20:0.105717 21:0.189906 22:0.112597 23:0.284193 25:0.00172183 27:0.00193237 28:0.00330341 29:0.00210908 
1 1:0.020202 2:1 6:1 9:1 11:0.172414 12:0.2 13:0.2 14:0.2 15:0.2 16:0.2 18:0.171153 19:0.0935439 20:0.101601 21:0.188194 22:0.0806481 23:0.260979 24:0.00194951 25:0.000712479 26:0.00245078 27:0.00402576 
1 1:0.111111 3:1 5:1 8:1 11:0.172414 12:0.2 13:0.2 14:0.2 15:0.2 16:0.4 17:0.4 18:0.187875 19:0.138207 20:0.130032 21:0.260481 22:0.188346 23:0.343605 24:0.0343425 25:0.00296866 26:0.0334806 27:0.00628019 28:0.00937803 29:0.0071879 
1 1:0.0909091 2:1 5:1 9:1 11:0.0862069 12:0.1 13:0.4 14:0.1 15:0.2 16:0.1 17:0.1 18:0.146709 19:0.066322 20:0.0864621 21:0.160239 22:0.0807542 23:0.290459 25:0.000127059 27:0.000172303 28:0.08994 29:0.00302649 
1 1:0.10101 3:1 4:1 9:1 11:0.12069 12:0.3 13:0.1 14:0.1 15:0.1 16:0.2 17:0.2 18:0.146431 19:0.0664102 20:0.0865642 21:0.204366 22:0.128694 23:0.297346 24:0.000572376 25:0.000237493 26:0.0523994 27:0.00483092 28:0.00703352 29:0.00378311 
1 1:0.020202 2:1 5:1 9:1 11:0.241379 12:0.2 13:0.2 14:0.4 15:0.4 16:0.4 17:0.2 18:0.164473 19:0.0896871 20:0.0995386 21:0.184233 22:0.105467 23:0.280595 24:0.00583823 26:0.00217513 28:0.00213819 29:0.00397226 
1 1:0.121212 3:1 4:1 9:1 11:0.12069 16:0.1 17:0.1 18:0.15521 19:0.074365 20:0.0863446 21:0.160138 22:0.0818082 23:0.260979 24:0.00985746 27:0.00188406 29:0.00202396 
1 1:0.131313 2:1 5:1 8:1 11:0.413793 12:0.1 13:0.5 14:0.4 15:0.4 16:0.4 17:0.4 18:0.238675 19:0.166987 20:0.145063 21:0.26158 22:0.189543 23:0.343893 24:0.00595271 25:0.00237493 26:0.00446409 27:0.00644122 29:0.00775537 
1 1:0.353535 3:1 5:1 9:1 11:0.103448 14:0.1 15:0.2 16:0.2 17:0.2 18:0.151383 19:0.0693522 20:0.0866257 21:0.162504 22:0.0832192 23:0.260979 24:0.00343425 25:0.000303991 26:0.00223204 27:0.00398229 29:0.0017913 
1 1:0.020202 3:1 5:1 8:1 11:0.413793 12:0.4 13:0.4 14:0.4 15:0.2 16:0.2 17:0.2 18:0.173358 19:0.095591 20:0.10253 21:0.187272 22:0.100215 23:0.273692 24:0.00160265 26:0.00103567 27:0.000969404 28:0.00180058 29:0.00245713 
1 1:0.0808081 3:1 5:1 8:1 11:0.586207 12:0.2 13:0.1 14:0.1 15:0.1 16:0.1 17:0.1 18:0.159792 19:0.0672217 20:0.0862458 21:0.162323 22:0.0819232 23:0.261849 24:0.00120771 26:0.00279005 27:0.00322061 28:0.00265398 29:0.00209962 
1 1:0.040404 2:1 5:1 9:1 11:0.206897 12:0.2 13:0.2 14:0.2 15:0.2 16:0.2 17:0.2 18:0.193668 19:0.11456 20:0.113748 21:0.178805 22:0.100967 23:0.276629 24:0.00343425 25:0.00136559 26:0.000797955 27:0.00161031 28:0.00205848 29:0.00189155 
1 3:1 6:1 8:1 11:0.362069 12:0.4 13:0.2 14:0.2 15:0.2 16:0.2 17:0.2 18:0.154452 19:0.07442 20:0.0915122 21:0.169185 22:0.0903654 23:0.260979 24:0.00140575 25:0.000593733 26:0.000214276 27:0.00031562 29:0.0153935 
1 1:0.010101 2:1 5:1 8:1 11:0.706897 12:0.2 13:0.2 14:0.2 18:0.163973 19:0.0848034 20:0.0863446 21:0.160138 22:0.0806481 23:0.260979 24:0.00114475 26:0.0228784 
1 1:0.040404 2:1 5:1 8:1 11:0.224138 12:0.2 13:0.2 14:0.2 15:0.2 16:0.2 17:0.2 18:0.186205 19:0.105959 20:0.10176 21:0.177368 22:0.0973917 23:0.282094 24:0.00291912 25:0.000971347 26:0.00111602 27:0.00161031 28:0.00234451 29:0.00189155 
1 1:0.010101 2:1 4:1 9:1 11:0.241379 12:0.1 13:0.4 14:0.4 15:0.1 16:0.2 17:0.2 18:0.161568 19:0.0815947 20:0.0863446 21:0.167959 22:0.0890952 23:0.26818 26:0.00926633 27:0.000805153 28:0.00234451 29:0.000870115 
1 1:0.0606061 3:1 5:1 9:1 11:0.0689655 12:0.2 13:0.2 14:0.2 15:0.2 16:0.2 17:0.2 18:0.205076 19:0.130332 20:0.100103 21:0.185415 22:0.0946411 23:0.282643 24:0.00343425 25:0.00118747 26:0.00267845 27:0.00323994 28:0.0339953 29:0.00567466 
1 1:0.282828 2:1 4:1 9:1 11:0.137931 12:0.3 18:0.146519 19:0.0662204 20:0.0863446 21:0.160138 22:0.0806481 23:0.260979 
1 1:0.242424 2:1 4:1 8:1 11:0.551724 12:0.3 13:0.1 14:0.1 15:0.1 16:0.1 17:0.1 18:0.146519 19:0.0701969 20:0.098149 21:0.160138 22:0.0907422 23:0.266881 24:0.00479651 25:0.015253 27:0.0163929 28:0.0180058 
1 1:0.010101 2:1 6:1 9:1 11:0.0517241 12:0.2 13:0.2 14:0.2 15:0.2 16:0.4 17:0.4 18:0.158439 19:0.0802167 20:0.0949981 21:0.17662 22:0.0975791 23:0.276177 24:0.00171713 25:0.000750478 26:0.00223204 28:0.00703352 
1 1:0.010101 3:1 5:1 9:1 11:0.241379 12:0.3 13:0.4 14:0.2 15:0.2 18:0.159068 19:0.078052 20:0.0900171 21:0.160138 22:0.0806481 23:0.260979 25:0.000593733 
1 1:0.0606061 2:1 5:1 9:1 11:0.0517241 12:0.5 13:0.4 14:0.4 15:0.4 16:0.4 17:0.4 18:0.202267 19:0.127335 20:0.122171 21:0.220057 22:0.148468 23:0.314469 24:0.00343425 25:0.00148433 27:0.00966184 28:0.00586127 29:0.00510719 
1 1:0.020202 3:1 6:1 8:1 11:0.241379 12:0.4 13:0.4 14:0.4 15:0.4 16:0.4 17:0.4 18:0.170553 19:0.0913166 20:0.102099 21:0.186453 22:0.110326 23:0.283497 25:0.0017812 27:0.0041868 29:0.00302649 
1 1:0.353535 3:1 4:1 9:1 11:0.103448 12:0.2 13:0.2 14:0.2 15:0.2 16:0.2 17:0.4 18:0.165345 19:0.0875897 20:0.0993607 21:0.182882 22:0.104513 23:0.279691 24:0.00206055 25:0.00106872 26:0.00111602 27:0.00265539 28:0.00235154 29:5.67466e-06 
1 1:0.0909091 3:1 5:1 9:1 11:0.275862 12:0.3 13:0.4 14:0.1 15:0.1 18:0.149609 19:0.0693456 20:0.0865236 21:0.160443 22:0.0808206 23:0.262029 24:1.14475e-05 25:0.000385926 26:0.000361591 28:0.00320494 29:0.00788021 
1 1:0.0707071 3:1 5:1 9:1 11:0.0689655 12:0.3 13:0.4 14:0.2 15:0.2 16:0.4 17:0.2 18:0.173986 19:0.0949371 20:0.103756 21:0.191915 22:0.110219 23:0.284776 25:0.00118747 26:0.00272756 28:0.00703352 29:0.00189155 
1 1:0.242424 2:1 5:1 8:1 11:0.327586 12:0.2 13:0.2 14:0.2 15:0.2 16:0.2 17:0.2 18:0.272595 19:0.147804 20:0.125575 21:0.211064 22:0.132926 23:0.304592 24:0.00801326 25:0.0017812 26:0.00223204 27:0.00563607 28:0.0117225 29:0.00567466 
1 1:0.222222 3:1 5:1 9:1 11:0.0344828 12:0.1 13:0.1 14:0.4 15:0.4 17:0.1 18:0.147448 19:0.0683111 20:0.0874454 21:0.160138 22:0.0806481 23:0.261578 24:0.00252189 28:0.00182872 
1 1:0.161616 2:1 4:1 8:1 11:0.396552 12:0.3 13:0.4 14:0.2 15:0.2 16:0.2 17:0.2 18:0.221687 19:0.140932 20:0.123892 21:0.20866 22:0.114301 23:0.287361 24:0.0022895 25:0.00118747 26:0.00341168 27:0.00322061 28:0.0117225 29:0.00378311 
1 1:0.0909091 3:1 6:1 8:1 11:0.5 12:0.2 13:0.2 14:0.2 15:0.2 16:0.2 17:0.4 18:0.179194 19:0.102591 20:0.108131 21:0.199406 22:0.123887 23:0.294591 24:0.0022895 25:0.00118747 26:0.00299094 27:0.0041868 28:0.00234451 29:0.00995146 
1 1:0.10101 3:1 4:1 9:1 11:0.275862 12:0.4 13:0.4 14:0.4 15:0.4 16:0.4 17:0.4 18:0.14705 19:0.0667899 20:0.086674 21:0.160703 22:0.081243 23:0.26144 
1 1:0.171717 2:1 4:1 9:1 11:0.0344828 12:0.4 13:0.4 14:0.4 15:0.4 16:0.4 17:0.4 18:0.285512 19:0.216251 20:0.177756 21:0.31885 22:0.251854 23:0.393178 24:0.00572376 25:0.00745254 26:0.00691933 27:0.0112721 28:0.00540174 29:0.0116898 
1 1:0.151515 2:1 4:1 8:1 11:0.517241 12:0.2 13:0.2 14:0.2 15:0.4 16:0.4 17:0.4 18:0.14774 19:0.0676259 20:0.0877847 21:0.162452 22:0.0855187 23:0.263798 24:0.00152366 25:0.0014683 27:0.00402576 
1 1:0.020202 2:1 5:1 9:1 11:0.155172 12:0.2 13:0.2 14:0.2 15:0.2 16:0.2 17:0.2 18:0.152654 19:0.0753691 20:0.0918866 21:0.16984 22:0.0908612 23:0.260979 24:0.00343425 25:0.000593733 26:0.0002299 
1 1:0.040404 3:1 5:1 9:1 11:0.0517241 12:0.2 13:0.2 14:0.2 15:0.2 16:0.2 17:0.2 18:0.189525 19:0.111602 20:0.112988 21:0.197014 22:0.118639 23:0.289995 24:0.00251845 25:0.00112156 26:0.00168519 27:0.00225443 28:0.00398566 29:0.00378311 
1 1:0.0909091 2:1 4:1 9:1 11:0.103448 12:0.2 13:0.2 14:0.2 15:0.2 16:0.1 17:0.1 18:0.151432 19:0.0707606 20:0.0889487 21:0.16278 22:0.0809991 23:0.261319 24:0.00128212 25:0.000593733 27:0.000570048 28:0.00103862 29:0.000834175 
1 1:0.151515 3:1 4:1 8:1 11:0.224138 12:0.3 15:0.1 16:0.2 17:0.1 18:0.146476 19:0.0658645 20:0.0857807 21:0.160706 22:0.0809228 23:0.262094 26:0.00181912 28:0.00351676 
1 2:1 5:1 9:1 11:0.0517241 12:0.3 13:0.4 14:0.4 15:0.4 16:0.4 17:0.4 18:0.150263 19:0.0714477 20:0.0892386 21:0.165961 22:0.086535 23:0.266234 24:0.00171713 26:0.00111602 28:0.00234451 
1 1:0.141414 3:1 6:1 8:1 11:0.465517 12:0.4 13:0.4 14:0.4 15:0.4 16:0.4 17:0.4 18:0.221422 19:0.139161 20:0.120742 21:0.215955 22:0.126243 23:0.301697 24:0.00681127 26:0.0111602 28:0.0468901 
1 1:0.030303 3:1 4:1 9:1 11:0.0517241 12:0.1 13:0.4 14:0.1 15:0.1 16:0.2 17:0.1 18:0.147209 19:0.0665906 20:0.0865587 21:0.160873 22:0.0810348 23:0.261094 25:0.000231556 26:0.000870497 28:0.000351676 29:0.00147541 
1 1:0.20202 2:1 5:1 9:1 11:0.0862069 12:0.3 16:0.1 17:0.5 18:0.146519 19:0.0662204 20:0.0863446 21:0.160138 22:0.0819272 23:0.26174 27:0.00207729 
1 3:1 4:1 9:1 11:0.0172414 12:0.2 13:0.2 14:0.2 15:0.4 16:0.4 17:0.4 18:0.152341 19:0.0734435 20:0.0912454 21:0.168271 22:0.0900105 23:0.268006 24:0.00148818 25:0.00095116 27:0.00152657 29:0.000915512 
1 1:0.030303 3:1 5:1 9:1 11:0.0689655 12:0.4 13:0.2 14:0.2 15:0.2 16:0.4 17:0.4 18:0.169297 19:0.0916279 20:0.101605 21:0.187769 22:0.110213 23:0.284477 24:0.00200332 25:0.00105209 26:0.00257913 27:0.00177134 28:0.00328231 
1 1:0.141414 3:1 6:1 8:1 11:0.327586 12:0.2 13:0.2 14:0.2 15:0.2 16:0.2 17:0.2 18:0.196683 19:0.122 20:0.120807 21:0.220644 22:0.145798 23:0.314646 24:0.00412797 25:0.0033249 26:0.00279005 27:0.00402576 28:0.0126603 29:0.00491804 
1 1:0.010101 2:1 6:1 9:1 11:0.12069 12:0.1 13:0.4 14:0.4 15:0.4 16:0.2 17:0.2 18:0.14963 19:0.0703022 20:0.089131 21:0.164702 22:0.0873441 23:0.268368 24:0.00114475 25:0.000593733 27:0.00322061 28:0.00703352 29:0.00378311 
1 1:0.151515 3:1 4:1 9:1 11:0.189655 12:0.1 13:0.1 14:0.1 15:0.1 16:0.1 17:0.1 18:0.147562 19:0.0700564 20:0.0864928 21:0.160187 22:0.0806481 23:0.261282 24:0.00462709 25:0.000160308 28:0.000923736 29:0.00122194 
1 1:0.020202 3:1 5:1 8:1 11:0.0344828 12:0.2 13:0.2 14:0.2 15:0.2 16:0.4 17:0.4 18:0.172478 19:0.0947359 20:0.102763 21:0.190305 22:0.112853 23:0.28472 24:0.00206055 25:0.000872787 26:0.00390608 27:0.00322061 29:0.00264817 
1 1:0.0808081 3:1 4:1 9:1 11:0.189655 12:0.3 13:0.4 14:0.4 15:0.2 16:0.2 17:0.2 18:0.175035 19:0.0977804 20:0.104148 21:0.191 22:0.113967 23:0.287255 24:0.0021052 26:0.00131244 27:0.00220129 28:0.00304786 29:0.00820367 
1 1:0.010101 2:1 5:1 9:1 11:0.327586 12:0.2 13:0.2 14:0.2 15:0.2 16:0.2 17:0.2 18:0.161622 19:0.0835715 20:0.0970092 21:0.178231 22:0.100083 23:0.276348 24:0.00206055 25:0.000949973 26:0.000428552 27:0.00063124 28:0.000937803 
1 1:0.0909091 2:1 4:1 8:1 11:0.155172 12:0.4 13:0.2 14:0.2 15:0.2 16:0.2 17:0.2 18:0.222448 19:0.147073 20:0.133268 21:0.242016 22:0.168426 23:0.331096 24:0.00354873 25:0.00237493 26:0.00446409 27:0.00563607 28:0.0117225 29:0.0189155 
1 1:0.30303 3:1 4:1 8:1 11:0.293103 12:0.3 17:0.1 18:0.146519 19:0.0662204 20:0.0863446 21:0.160138 22:0.0806481 23:0.261032 28:0.000161771 29:0.000945777 
1 1:0.191919 3:1 5:1 9:1 11:0.482759 12:0.4 13:0.4 14:0.4 15:0.4 16:0.4 17:0.4 18:0.227168 19:0.154491 20:0.136107 21:0.250064 22:0.1797 23:0.336421 24:0.00480796 26:0.00810232 27:0.00982287 29:0.0071879 
1 1:0.30303 2:1 4:1 9:1 11:0.137931 12:0.4 13:0.2 14:0.2 15:0.2 16:0.2 17:0.2 18:0.186474 19:0.100502 20:0.100682 21:0.181484 22:0.100827 23:0.273765 24:0.00332436 25:0.000890599 26:0.00111602 27:0.00322061 28:0.00234451 29:0.00378311 
1 1:0.040404 3:1 4:1 9:1 11:0.189655 12:0.3 13:0.4 14:0.4 15:0.4 16:0.2 17:0.2 18:0.164297 19:0.0853671 20:0.0988177 21:0.180915 22:0.103498 23:0.280183 24:0.000801326 25:0.00189995 27:0.00241546 28:0.00548615 29:0.0017478 
1 1:0.121212 2:1 4:1 9:1 11:0.103448 12:0.1 13:0.1 14:0.1 15:0.1 16:0.2 17:0.1 18:0.146808 19:0.0665298 20:0.0865236 21:0.162399 22:0.081714 23:0.262247 24:0.000373189 25:0.000193557 26:0.00267845 28:0.00386844 29:0.00123329 
1 1:0.353535 3:1 5:1 8:1 11:0.482759 12:0.2 13:0.2 14:0.1 15:0.1 18:0.158216 19:0.0744238 20:0.0865939 21:0.160136 22:0.0806461 23:0.260977 24:0.00349149 25:0.000270742 29:0.000981716 
1 1:0.0909091 3:1 4:1 8:1 11:0.241379 12:0.2 13:0.2 14:0.4 15:0.2 16:0.2 17:0.2 18:0.234033 19:0.163434 20:0.140254 21:0.251689 22:0.176843 23:0.335483 24:0.0100738 26:0.00401768 27:0.00563607 28:0.00867467 29:0.00651262 
1 1:0.0909091 2:1 4:1 9:1 11:0.172414 12:0.4 13:0.4 14:0.4 15:0.4 16:0.4 17:0.4 18:0.221633 19:0.148529 20:0.134499 21:0.243842 22:0.170568 23:0.332245 24:0.00469348 25:0.00195932 26:0.00390608 27:0.00547504 28:0.00867467 29:0.00756621 
1 1:0.171717 3:1 6:1 8:1 11:0.517241 12:0.3 13:0.1 14:0.4 15:0.4 16:0.2 17:0.1 18:0.146519 19:0.0662499 20:0.0863616 21:0.160167 22:0.0825628 23:0.261653 24:3.54873e-05 27:0.00305958 28:0.00205848 
1 1:0.040404 2:1 6:1 8:1 11:0.396552 12:0.2 13:0.2 14:0.2 15:0.2 16:0.2 17:0.2 18:0.19076 19:0.114038 20:0.0998318 21:0.180012 22:0.0994532 23:0.27486 24:0.00182702 25:0.000766509 26:0.000775635 27:0.00107568 28:0.00153331 29:0.00120492 
1 1:0.232323 3:1 5:1 8:1 11:0.293103 12:0.3 13:0.4 14:0.1 15:0.4 16:0.4 17:0.4 18:0.153126 19:0.0664302 20:0.0864484 21:0.160316 22:0.0822822 23:0.2621 24:0.00102913 25:0.000117559 27:0.00234944 29:0.00236444 
1 1:0.40404 2:1 5:1 9:1 11:0.465517 12:0.2 13:0.2 14:0.2 15:0.1 16:0.1 17:0.2 18:0.172111 19:0.0790152 20:0.0910027 21:0.174537 22:0.0976197 23:0.275409 24:0.00620684 25:0.00180495 26:0.0171443 27:0.0275894 28:0.0119007 29:0.00764188 
1 1:0.040404 2:1 5:1 8:1 11:0.362069 12:0.2 13:0.2 14:0.2 15:0.2 16:0.2 17:0.2 18:0.157236 19:0.0784734 20:0.0940257 21:0.173661 22:0.0951815 23:0.272516 24:0.00148818 25:0.000771853 26:0.000669613 27:0.000856683 28:0.0014067 29:0.000934427 
1 1:0.0808081 3:1 5:1 8:1 11:0.103448 12:0.4 13:0.4 14:0.4 15:0.2 16:0.2 17:0.2 18:0.222401 19:0.14927 20:0.133116 21:0.242196 22:0.248751 23:0.330385 24:0.00457901 26:0.00468729 27:0.00528986 28:0.0182567 29:0.00756621 
1 1:0.191919 3:1 4:1 8:1 11:0.293103 12:0.4 13:0.1 14:0.4 15:0.4 17:0.1 18:0.146666 19:0.0678281 20:0.0871786 21:0.160138 22:0.0806481 23:0.26144 24:0.00193921 28:0.0014067 
1 1:0.020202 3:1 6:1 8:1 11:0.172414 12:0.4 13:0.4 14:0.4 15:0.1 16:0.1 17:0.1 18:0.163217 19:0.0692782 20:0.0865587 21:0.160505 22:0.0810348 23:0.261278 24:0.0021819 26:0.000435248 27:0.000628019 28:0.000914358 29:0.000737706 
1 1:0.353535 2:1 5:1 8:1 11:0.724138 12:0.3 14:0.1 15:0.1 16:0.1 17:0.1 18:0.146517 19:0.0662176 20:0.0866685 21:0.160128 22:0.0827919 23:0.26369 25:0.000352084 27:0.00349758 28:0.00831128 
1 1:0.010101 2:1 5:1 8:1 11:0.293103 12:0.2 13:0.2 14:0.2 15:0.2 18:0.161225 19:0.0831559 20:0.0967764 21:0.160138 22:0.0806481 23:0.260979 24:0.00171713 25:0.000890599 
1 1:0.0909091 3:1 5:1 8:1 11:0.310345 12:0.5 13:0.4 14:0.4 15:0.4 16:0.4 17:0.2 18:0.214319 19:0.13722 20:0.124669 21:0.22597 22:0.148097 23:0.3138 25:0.00320319 26:0.00271528 28:0.00579328 29:0.00981905 
1 2:1 5:1 8:1 11:0.0517241 12:0.7 13:0.6 14:0.5 15:0.4 16:0.2 17:0.2 18:0.155217 19:0.0752732 20:0.0914199 21:0.168568 22:0.089708 23:0.268031 27:0.000772947 28:0.000797132 29:0.000945777 
1 2:1 5:1 9:1 11:0.0172414 12:0.4 13:0.2 14:0.2 15:0.1 16:0.1 18:0.154157 19:0.0749534 20:0.0918213 21:0.160635 22:0.0806481 23:0.260979 24:0.0014172 25:0.000757009 26:0.000589259 
1 1:0.20202 2:1 5:1 8:1 11:0.206897 12:0.2 13:0.2 14:0.2 15:0.2 16:0.2 17:0.2 18:0.271793 19:0.197745 20:0.164497 21:0.225139 22:0.150649 23:0.314302 24:0.00572376 25:0.0035624 26:0.00253337 27:0.00402576 28:0.00579562 29:0.00491804 
1 1:0.0707071 2:1 5:1 8:1 11:0.275862 12:0.4 13:0.4 14:0.4 15:0.4 16:0.4 17:0.4 18:0.197864 19:0.122498 20:0.119194 21:0.217179 22:0.142064 23:0.3096 24:0.0032053 25:0.00124684 26:0.00256685 27:0.00402576 28:0.00586127 29:0.000945777 
1 1:0.393939 2:1 4:1 8:1 11:0.327586 12:0.1 13:0.1 15:0.1 16:0.1 18:0.150722 19:0.0662204 20:0.0863446 21:0.162801 22:0.0806481 23:0.260979 26:0.00315499 29:0.00633103 
1 1:0.10101 3:1 4:1 8:1 11:0.189655 12:0.3 13:0.4 14:0.2 15:0.2 16:0.2 17:0.2 18:0.184452 19:0.105986 20:0.110572 21:0.201098 22:0.123717 23:0.292494 25:0.0017812 26:0.00223204 27:0.00322061 28:0.00468901 29:0.00680959 
1 1:0.626263 3:1 4:1 9:1 11:0.137931 12:0.2 13:0.2 14:0.2 15:0.2 16:0.2 17:0.2 18:0.586401 19:0.538762 20:0.355426 21:0.56992 22:0.407346 23:0.521154 24:0.0181649 25:0.00734507 26:0.0295232 27:0.0137037 28:0.025881 29:0.0101955 
1 1:0.212121 3:1 5:1 8:1 11:0.551724 12:0.2 13:0.2 14:0.2 15:0.2 16:0.2 17:0.2 18:0.330214 19:0.267509 20:0.204207 21:0.323278 22:0.255656 23:0.391351 24:0.0093469 25:0.00409023 26:0.00673296 27:0.0100596 28:0.0144 29:0.0116255 
